214 100
vulnerability 0.004835817 -0.002141657 0.0017094172 -0.0026616624 0.0024528059 -0.0022515783 0.0030871711 -0.0032887305 0.0011382715 0.003320976 -0.0039590923 -0.0028123471 0.0035648337 -0.0027309132 -0.0049069924 -0.0034454342 0.0024227507 -0.0011604336 -0.00010298157 0.0029172264 0.0026709936 0.0030316238 0.0025164494 -0.00034508924 -0.0038989224 -0.002534632 0.0038543842 -0.0018205117 0.002447911 0.0017854866 0.0034141636 0.0027371766 -0.00081030023 0.0005575917 -0.0008483953 -0.0012870138 0.0012778539 0.0041551082 -0.0042248876 0.0025363432 0.0023494258 -0.004358703 -0.0003178251 -0.0035056688 -0.0031006485 -0.002151764 -0.0028688235 -0.00016046235 0.0047103274 -0.0024035121 -0.0010227921 -0.0025833147 -0.0036418743 -0.0026540419 -0.0016583902 0.0009299311 -0.0036738268 0.0010522617 -0.0024149804 -0.0008786568 0.0016306181 0.0022569592 0.00051639485 -0.00027595006 0.001614144 -0.0037424767 0.0034891586 0.0037582873 -0.0020896378 -0.003640147 -0.0036716235 -0.00044363702 -0.0018706311 -0.004290494 0.0029785286 1.249405e-05 -0.00028033846 0.004971799 0.003988145 0.0024263514 -0.0044240966 0.0030978508 -0.003779815 -0.004961467 -0.0042238925 0.0034920177 -0.0009919001 0.0036582132 0.00019285434 -0.0013467355 0.0028748813 0.0009579559 0.0021700077 -0.0029548067 0.0008393329 -0.0036516858 -0.004903813 0.0045775557 -0.003739682 -0.004877839
information -0.0042962437 0.00223396 0.0010096994 -0.0028094298 0.002992911 0.004221005 0.0014368717 0.0039014313 0.0048720883 0.0016622334 0.004306896 0.003667985 -0.0019776234 0.0034764104 0.004889701 0.0023255444 -0.0047977045 0.0029656615 -0.0008737077 -0.002336877 0.0019439943 -0.0019231226 -0.0017528071 -0.002424418 -0.0005936521 -0.00371329 -0.0038657133 0.0014558131 0.004685345 -0.003526248 0.0033638342 -0.0015074823 -0.0038429867 0.0034637353 0.0025741414 0.0037621749 -0.0012190739 0.0020283705 0.0044895695 -0.0023414404 0.004664725 0.0013383223 0.00036488916 0.0015429662 -0.0036654333 -0.0027849174 -0.0009778762 -0.004557058 0.0044189934 -0.0043763546 0.00440368 0.0045144525 0.0016212894 -0.002728916 0.0024272816 -0.0021982372 -0.0044936673 0.0038475555 0.004607052 0.0040732743 0.00032678124 -0.0047079995 0.0009968234 -0.0041984096 -0.0017198416 0.0009803446 -0.0034923055 0.0010135744 0.0047412897 -0.0031909067 0.0048831715 -0.0020155539 -0.0005272485 0.0039221263 0.0035467972 0.0030530922 0.0045978935 0.0036498278 -0.0013964028 0.0048513045 -6.3332576e-05 0.0008327732 -0.0044471268 -0.0016873291 -0.0025678151 0.0026512183 0.00029634326 -0.0020119036 0.00012367693 0.002401631 0.0016633825 0.00079173874 -0.0028473183 0.0043734014 -0.0018319606 7.737101e-05 0.0029885827 -0.00417879 -0.0007168152 0.0019507468
model -0.00061824825 -0.003787573 -0.0036192036 0.0010323116 -0.00029424916 -0.0043343357 0.004423192 -0.0004855153 0.0032452443 0.001539461 0.00017140215 -0.001635854 0.003134094 -0.0027445955 -0.0046701916 0.002392416 0.0006562 -0.0026566777 -0.004722955 -0.002964081 0.0022741486 0.00475761 -0.0022623043 -0.00048241013 -0.0014910902 -0.00081505574 -0.0040332056 -0.0009804075 1.2039966e-05 0.002852062 -0.0037978387 0.0010337235 0.00039014875 0.0018199928 0.0010395452 -0.0011825997 -0.0027143178 0.002583048 -0.0017093035 -0.0016517986 0.0032444901 0.002928581 -0.003187863 -0.00047506427 0.0022436779 -0.0038062823 0.0049426714 0.0034725748 0.0032606637 0.0031858708 0.002015675 -0.0024143145 -0.0011161502 0.00054884143 -0.0036691348 0.00078774896 -0.000985344 0.0042191623 -0.004016401 0.00014984084 -0.0028709238 0.0015284319 -0.0020367221 -0.0027136982 0.0002519773 0.003971355 -0.0014074814 -0.0048529445 -0.0012881687 -0.0026199112 -0.0044566155 -0.0026332042 0.00038737155 0.0006452264 0.0029091465 0.0049633035 -0.0013438228 -0.0016811389 0.004494952 0.0040111565 0.0023802402 -0.0042928895 -0.0029299255 -0.0010643014 -0.0044245543 -0.0036532881 -0.0029134578 -0.0047234893 -0.0014246326 -0.00071266736 0.0030277346 -0.0018256197 -0.004168001 -0.0031270925 -0.0036410948 0.0021715022 0.0009861753 -0.0006232569 -0.0027281442 -0.0019958704
security -0.0007843875 -0.0006772366 -0.0019542857 0.00047384083 -0.004933216 -0.0037910074 0.0014763284 0.0015444935 -0.00014568884 -0.0037844642 0.0034183555 0.0005612241 -0.003995912 0.0014923566 0.004939474 0.0011388026 0.00052828604 -0.0010472615 -0.0047575235 0.004869325 -0.002870692 0.0039506727 -0.001993247 0.0007251186 0.004937306 -0.003234078 -0.00011437522 0.0046488363 -0.004033339 0.0006299773 -0.0013998986 0.00020294609 -0.0039368756 -0.0030953735 -0.0010021649 0.0044713765 -0.0022232893 -0.0033038184 -0.00061015465 0.0037189673 -0.0031368525 0.0005477015 -0.0032173165 -0.0023681668 -0.0043294583 0.0002923597 -0.0006041127 0.0019825874 0.0011759981 0.0043304414 -0.0016527337 -0.004852027 -0.004240631 0.0032244937 -0.0044786762 0.0033344163 0.002535016 0.0017973947 0.0043402934 0.0046775024 -0.0026413584 0.002469199 0.0027027647 0.0015727199 -0.0035936648 0.002249087 0.0041434136 -0.0031414954 -0.004306563 0.0045359647 0.0045417813 -0.005027801 -0.0021791747 0.0046233144 0.0028295587 -0.0013517243 -0.0036087069 -0.0034013335 0.0026898663 0.0044006533 0.004806939 0.0026735687 -0.00381245 0.0035645235 -0.003973766 0.001522375 -0.0022493443 6.745513e-05 0.0038571446 0.0011449006 0.0046573784 -0.0015925334 0.004223519 -0.0042435154 -0.0020406274 0.003847657 0.002859647 0.0016241004 -0.0027225781 0.0040150518
models 0.0044190325 0.0041332007 -0.000452359 -0.0039560176 0.003965829 -0.0042108875 0.00013520611 0.0040324978 0.0002044446 0.002784018 0.002996717 0.00025095517 0.0031105345 -0.0021259466 -0.0035247982 0.0035364619 0.0027196226 -0.004595596 -0.0047192452 -0.003999428 0.0018400698 -0.0007434439 0.0020306462 0.0010095042 0.001992156 -0.004922715 -0.00073735614 0.0014752317 0.0024093513 -0.003351034 -0.0015974381 0.0024272955 -0.003825593 0.0027938215 0.004666026 0.00058083766 -0.002402586 -0.0030196942 0.0017062244 -0.0036194941 0.0049515194 -0.0022034582 0.001934907 -0.0030790137 0.0038643777 0.0020344425 0.0026183699 0.0018037364 0.0011163816 -0.0041315667 -0.00054192875 -0.00016510078 0.00028644782 -0.00022822194 0.0015971008 -5.2773845e-05 -0.0026200006 0.0020464747 0.0037243946 0.0035780382 0.00019938259 0.0028722659 0.004584901 -0.004359126 -0.002067794 0.0007092959 0.004782282 -0.0029450448 -0.003102294 -0.0047035557 -0.0013563653 -0.0016957546 -0.004980297 -0.0043540047 -0.0012667009 -0.0043161474 0.0010021366 -0.002261289 0.003256432 0.0049330867 0.00030679398 -0.0024138235 -0.0009323594 -0.0031476854 -0.0043126005 -0.0027923218 0.00354236 -0.0014788429 -0.0017557461 0.00448197 0.0027675675 0.00015326381 0.0026158087 -0.00085763854 -3.4008855e-05 0.00262502 -0.0045122784 -0.0035604562 0.00015415942 0.0005044763
distance -0.0039985483 -0.002526032 -0.004942945 -4.872111e-05 0.0012193947 0.0021272502 0.0019323404 0.0011090938 0.0019061337 0.0025398335 0.00464099 0.0028420843 -0.0034112402 -0.0014302193 -0.0023798663 -0.0014419511 -0.0027273688 0.0011296875 0.0039683757 -3.975963e-05 -0.0033260938 -0.002356807 -0.004910519 -0.001671765 0.0010782536 0.0012902502 -0.0042531006 0.0002457117 -0.000851973 -0.0010943592 0.003699099 -0.0006471494 0.00060140446 0.0045705116 -0.00043310472 0.0018418934 -0.004268712 -0.00047526057 -0.0027199443 0.0009583403 -0.00090341736 -0.00412526 -0.002336159 -0.0005530158 -0.0009621581 0.00078410225 0.001420305 0.0025543578 0.003184299 0.0028362407 2.7407411e-06 0.004541219 0.0035828846 -0.00073613797 -0.004271541 -0.004643006 -0.0013593221 0.0031572615 -0.0017558067 1.149871e-05 -0.0043602963 -0.0018156671 0.0016822594 0.0047833296 0.0038311253 0.002032454 0.001681382 -0.002136331 -0.004276596 -0.0036520187 0.0036223235 7.9486155e-05 0.003338543 -0.00404674 -0.0009768521 0.0046889638 -0.0010749202 0.0036752578 -0.0018872455 0.0013460286 -0.0039727762 -0.003268752 0.0011225312 0.004395434 0.0015026912 0.0024433334 -0.00011055757 -0.002761302 0.0024611258 0.0022739477 -0.0029746767 0.0038886326 0.0010202802 -0.0033955656 -0.0037570419 -0.00066597 0.000383062 -0.0017203627 -0.0016230943 0.0015552416
extraction 0.0046760314 0.0021333597 0.003607921 0.004062393 0.0048384857 -0.0005315408 -0.001697891 -0.004269665 0.0008612635 -0.00360873 -0.00084772595 -0.00062704715 -0.0025672829 -0.0028590485 -0.00095943606 -0.0006480283 -0.0010593241 0.0030627511 0.0042369976 0.0008320308 -0.0044750273 -0.00020734633 -0.0007530275 -0.004874463 0.0040755994 0.004863905 -0.0037951611 -0.0007509061 0.0040562367 0.004933988 -0.0014621151 0.0007516507 0.0040969593 -0.0016885244 0.0028459697 -0.003924441 -0.0049381345 0.0014843914 -0.0047312793 0.0016875542 -0.004358291 0.0048790383 -0.0012900038 0.00090993126 0.0046399273 0.0041326494 0.0009889152 -0.0041493527 -0.0029210837 0.00079755636 -0.0022088613 0.004757522 0.001017416 -0.0006192593 -0.00498055 0.0040775198 0.0047320533 -0.00026015445 0.0027154547 -0.001685551 -0.0008424888 0.0018763262 -0.0025927245 0.0037035267 -0.00010188099 0.00262918 -0.0036108168 -0.0019481406 0.00038691613 0.0030034434 0.0025588535 -0.0024759902 -0.00061999797 -0.0009215194 0.0010248312 -0.0010551653 -0.00271893 -0.004746608 -0.0023554591 -0.0025519505 -0.0048399935 -0.0017766645 -1.47095e-05 -0.0010669605 -0.0027189169 0.0006002858 -0.00492052 -0.00087112514 0.00062425266 0.0015042184 0.003048157 -0.00039196227 0.0029663944 -0.00094071426 0.00019892695 0.003034698 0.004359187 -0.00064100255 -0.0010854895 -0.00046504504
block -0.0032813994 0.0043698535 0.004827178 0.0032530685 -0.00092644675 -0.0033591008 0.00038041043 0.0008242149 0.0008915773 -0.002007421 0.003951195 0.0011519742 -0.0025051588 -0.004930942 0.00082259276 -0.0025890486 -0.0024997364 -0.0029199275 -0.0028587233 -0.0021765179 0.0031528363 0.004172404 0.0015184704 -0.004225769 0.002381755 -0.0009911305 -0.002322357 -0.0031540333 0.003475555 -0.0019601174 -0.0036884104 -0.00043837665 0.0011911491 0.0036578674 0.0041287285 0.0035092134 -0.0029094159 -0.0012700089 -0.001676513 0.0030081088 -0.0015525803 -0.003223415 0.0036595508 0.001697827 -0.00022197512 0.0036645792 -5.9358514e-05 0.004767218 0.0012575367 0.0014037252 -0.003094417 0.0006488117 0.0045398236 0.0010570339 -0.0002693596 0.0021651941 -0.0046803737 0.0044677104 0.0047104484 -0.004201963 -0.0014018284 0.0021688184 0.000758576 -0.001683928 0.003657087 -0.0013411355 0.0046623703 0.0047636065 -0.0032919918 -0.004545902 -0.0047492455 0.0017528946 0.0041061374 0.0013552626 -0.0012402129 0.0010971292 0.0029295785 -0.004901639 0.004786349 0.00097351643 -0.0039271414 -6.8137364e-05 -0.0033301583 0.00028973102 0.0031067599 0.0043247812 0.00088604947 0.0001424605 0.004365806 0.0026900058 0.0017134295 0.004055361 -0.0019343653 0.0033071968 -0.00067308254 0.004045332 -0.003469605 -0.002200034 0.002229584 -0.002491587
pattern 0.0027272059 0.0049796603 -0.0043283342 0.0017221682 -0.0048756762 0.0021592593 -0.0002555232 0.0011315163 0.0045831036 0.00470696 -0.002654674 0.0043316786 -0.0031554252 0.0046766954 0.0031705415 0.0037779217 0.0034098185 0.0007127468 -0.001934635 -0.00012353814 0.0048947237 -0.0020831446 0.00067403563 0.0011116326 -0.003319619 -0.002899259 -0.0039313277 -0.0031657645 0.0031802058 -0.0009184815 -0.0010222746 -0.0028425655 -0.0034706611 0.0013180552 0.0010702233 -0.0022815263 0.003145992 -0.003513118 0.004829167 0.0042488608 -0.003916124 0.0005638909 -0.0011094083 -0.001480741 -0.004575879 0.004017931 0.0028363725 0.0012443202 0.00091155706 0.0019193725 -0.0004348979 0.00039720553 0.004526072 0.004789704 -0.0034930867 0.001785073 0.0039645885 -0.0028981485 0.0023056304 -0.0040417905 0.00040805625 0.00026087635 -0.0024245768 -0.0007336552 -0.003257871 0.0018198956 0.0046650614 -0.00064894586 0.0026835997 -0.00040362074 0.0014561279 0.0022233152 -0.003912657 -0.004572364 -0.0037189112 -0.0013193816 0.002321267 -0.0037275446 -0.0018772165 0.004029166 -0.0010448779 -0.0013913895 -0.0010557264 -0.00084008474 0.0037274514 0.0037377824 -0.00026410428 -0.0048018433 -0.0016904478 -0.003243127 0.003230664 0.004239586 -0.0009586955 0.0025078428 -0.0033169666 -0.0002969601 0.002786216 0.0027987175 -0.0020612644 -0.004383824
points 0.0037251285 -0.0015217768 0.0021817037 0.0001392355 0.0004406509 -0.002872164 0.0026421333 0.0045328545 0.00069038576 0.0016287065 0.00013655916 0.00205401 -0.0010676574 0.0020789444 -0.0037245213 -0.0023885774 0.004648685 -0.0041132784 0.0031781169 0.0036764513 -0.004567887 0.0010413313 -0.00056571304 -0.001139965 0.004834789 -0.0012424876 -0.0009324595 0.003510129 0.0006132491 0.00093327876 0.004360303 -0.0027587814 -0.0019602224 0.00019036492 0.0019737699 0.0012541544 0.002738245 0.0032681488 -0.003488965 -0.002534151 -0.0045890324 0.00322047 -0.0017099866 0.0024990658 -0.0007568489 -0.00093080953 0.00053794595 0.003576966 -0.004300088 -0.0024253135 -0.001286949 0.0041316906 -0.002944103 0.0025829934 0.0043020337 -0.0045536174 -0.00016947127 0.004903091 -0.0013402076 -0.00015053502 0.003368383 0.0014493669 -0.0033980096 0.00242304 0.0016030907 -0.0013303234 0.0025919566 -0.0041921814 0.002213658 -0.001649746 0.0045613497 -0.000959633 -0.0025859682 -0.003916922 0.0022895916 0.00038248004 -0.004499201 0.0030615341 -0.0041589136 -0.0044705 0.0009322848 -0.0006856821 -0.0015582804 0.003625393 -0.0009246229 0.0007125895 -0.0020583586 -0.0007089605 -0.0046751415 -0.002679153 -0.0010952412 0.0036172417 0.0023539935 0.0018692942 2.8405645e-06 0.003261314 0.0016364441 -0.0015838927 -0.003088567 -0.0012812453
analysis -0.0026803866 -0.0035146046 0.0032592583 0.0046645883 -0.004269305 0.0027644755 0.0011355536 0.0024065208 -0.004722307 0.004361784 -0.0050363513 -0.0022735137 -0.0026930475 -0.0042324746 -0.0048075938 0.0037331143 0.004732996 -0.0042562587 -0.0019948317 -0.004838081 -0.00058893854 0.002761072 0.0043801297 0.0035307752 -0.00016976794 0.0039920276 -0.003079383 -0.0014021471 0.00082020945 0.004325511 0.002495377 4.9303693e-05 0.0034422993 0.002984849 -0.0018374637 -0.0047337785 -0.0034949179 -0.0011386125 0.00403364 0.0010892913 -0.0020837595 -0.004358439 9.6079995e-05 0.0021677648 -0.003855979 -0.0010635728 0.004395584 0.0004651299 -0.004306177 0.0042183655 -0.0042791567 -0.0026000023 0.004122335 -0.0042768777 0.00097280834 -0.0015854917 -0.001224129 -6.000603e-05 0.0026706827 -0.0007006828 0.0013495447 0.000114074726 -0.0032874283 -0.0032813128 0.00090094446 0.0027396544 0.0021839768 -0.0010359152 -0.0015254035 -0.0005771076 -0.0026872524 0.0007042129 0.0032878448 -0.0020884657 5.4493896e-05 0.00082394993 0.0031648604 0.002752877 0.0044131386 -0.0010757911 0.0037469019 -0.004222885 -0.0035356751 -0.0027770528 -0.00081936026 0.0032639396 -0.0014328427 0.0009735164 0.0025789095 -0.0050091296 -0.0023671675 0.0027342467 -0.004631544 0.0011891781 0.0047380147 -0.0010014155 -0.0029479468 -0.00016355746 0.0036981045 0.0023567658
edit 0.0042171725 -0.0039055205 0.0031238552 0.0023471676 -0.0033782043 -0.0018603641 0.0036869212 0.002374846 0.00067168503 0.0043181754 -0.0016057601 0.0020871407 -0.0030773336 -0.0036030516 0.0007891911 -0.0022754767 -0.00055419496 -7.781769e-05 -0.004845695 -0.0020788715 -0.0024560008 -0.005010445 0.0014071619 -0.0016043542 0.004957996 -0.0005375204 0.0029665057 -0.0049742856 -0.003098936 0.004054996 0.0021123097 0.003874687 0.0040425095 0.0037089786 0.0020523863 0.0033968473 -0.0024269922 -0.0031388963 0.001920068 -0.0041845837 -0.0027093338 -0.0044138636 0.0015478791 0.0007940511 0.0015655471 -0.0010896334 -0.003186219 -0.0017170031 -0.004782033 0.001185807 0.0009781062 -0.0008224452 0.0024459541 -0.0006801911 -0.0008083396 -0.0018986079 1.1276573e-05 -0.00021451835 0.0034503085 0.0017397184 0.004399341 -0.0010150635 0.0017073461 0.004074406 -0.0034065237 0.003269489 0.0030184067 -0.004899405 0.0021322328 0.00082955894 0.00016741642 0.0044999425 0.0023326161 -0.0045361407 -0.0032482494 0.00081723806 0.0044572973 -0.0001446697 -0.0013175245 -0.0012088582 -0.0047518 0.000960719 0.0014741836 2.7814542e-05 -0.004558183 -0.0017476681 -0.00038201534 0.00424177 -0.0047162473 -0.0036602975 -0.0016431344 -0.0041906605 -0.001734267 0.003342687 0.0046455744 -0.00283864 -0.0046988903 0.002325663 -0.0048547015 -0.0045778025
software -0.0038997226 -0.004364619 0.0017479243 0.0035020504 0.0013855569 -0.0048109144 -0.0041260445 0.0029635346 0.0025354966 0.0021483675 2.8130331e-05 0.0020903042 0.0033896405 0.003955796 0.0024953692 0.0011210406 -0.0038387303 -0.004069045 -0.001534199 0.003800656 0.003366139 -0.0038227753 -0.0018676819 -0.0048861695 -0.0007224329 0.004488551 -0.0019251056 -0.0024075971 -0.004590997 -0.0030207478 0.0042998395 -0.004244005 0.0025629427 0.000368331 -0.0032661012 0.0036476355 0.0023218468 -0.0024335987 0.0024246848 -0.0037046988 -0.002813021 0.0023263695 0.0035395606 0.0012291573 -0.00406231 0.002829514 -0.004067993 0.0032110307 -0.003186458 -0.00073483976 0.000101739824 -0.0022919737 0.0046230936 -0.0005103346 -0.00144601 0.004764512 -0.0017161603 -0.004764555 0.001187066 -0.0047367667 -0.0026656853 -0.002786292 0.004606671 -0.0027607547 0.003601173 0.0004434098 0.00021737041 0.0032120433 -0.003148757 0.004752462 -0.0012661945 0.0008259096 -0.0041320994 -0.0006723176 0.003524937 -0.00474327 -0.0001579392 0.0049142954 0.0003439883 -0.0012833892 0.0011360527 0.003930361 -0.0033187068 -0.0041430956 -0.0028165276 0.0037527476 -0.00020558179 -0.0035107052 -0.0045884894 -0.0030960746 -0.00039635235 -0.001232117 0.0029491554 0.00038041806 0.004142056 -0.0023747568 -0.0032233384 -0.0044598673 0.000593256 0.002585311
language -0.0014522427 0.0011520095 -0.0044407235 0.0036011068 -0.0015815487 0.0030541534 0.0007069277 -0.0025076382 0.0012457639 0.004689074 -0.004979082 -0.0022200784 -0.0045936974 -0.0019031622 0.0011406011 -0.0023360362 0.0044524223 0.0034481161 -0.0018677505 -0.00067936647 -0.00039600092 -0.00018612502 0.004720318 -0.0022687213 0.0026759997 -0.0046690423 0.00042385608 0.004285408 -0.004513017 -0.0017919973 -0.0034067426 -0.0014974767 0.0033076368 0.002121782 0.0011075526 0.004342156 0.0007061652 -8.875626e-05 -0.0025330104 -0.00085147854 -0.0023064679 0.004493199 -0.0034041523 -0.0021786215 0.0016528337 -0.004526994 -0.00023328519 -0.0045138816 0.0016791717 0.00016778427 0.002337413 0.004617362 0.0030533304 -0.0038762628 0.00048418491 -0.004364998 -0.004445657 0.0027905095 -0.0036578304 0.003167387 0.0015246101 -0.004886317 0.0043741153 -0.00415505 0.0010291543 0.003668825 0.00069615827 -0.0027029028 0.0035518617 -0.004357166 0.0037455412 0.004567766 -0.003770374 -0.00048226246 0.0043608616 0.004702975 0.0020604492 -0.0018239557 -0.0018478216 0.0037953674 0.003417495 0.0037143345 -0.004442812 0.0011184299 0.000264298 -0.0014266227 -0.0002771795 0.0021287033 -0.0048803044 0.0047588083 -0.00030733718 -0.0023278326 -0.0011607362 0.0010884928 -0.0037790237 0.002077254 0.001999749 0.0016535694 -0.0013373924 -0.0019226556
feature 0.0027978302 0.0024067021 -0.0021615655 0.0008415529 0.0025583424 -0.002342846 -0.0033769647 -0.0013285459 0.0020115338 3.8240334e-05 -0.003050689 -0.0034234065 -0.0005799102 0.0044186357 0.003224428 0.0037938468 0.0017068095 -3.2035387e-05 0.00015632591 0.004546005 -0.0029270265 -0.0025468755 -0.004217914 -0.0035026525 0.0029229997 0.0015093015 0.0015241721 -0.00042779028 0.0031365505 0.0048319087 -0.0010656844 -0.0045518717 -0.0017916592 -0.0047751474 -0.0025378542 0.0036856048 -0.004223559 0.0018256587 -0.0034207269 -0.0034939197 -0.0003558685 -0.0045321016 0.0010232708 -0.00042762575 0.0035759672 -0.0032326702 0.0003081632 -0.0030483336 -0.00277878 -0.0013424106 0.00084858236 0.0035998689 0.002884909 -0.0023858245 -0.0032779076 -0.0022592074 -0.0033088597 -0.0040609576 0.0039580227 -0.00284652 -0.0016394968 -0.0025764655 0.0014947887 0.0017408755 -0.0031382164 -0.0024948064 -0.0028563673 -0.0037065796 0.0027313747 -0.0034961682 -0.0044458047 -0.0025082447 -0.0019271319 -0.0027808296 0.0008905874 0.00483287 0.0036829645 0.0011375161 -8.906846e-05 -0.0023553874 -0.00023184922 -0.0019981856 0.0009627347 -0.0029654615 -0.0016938591 0.004011358 -0.0019294564 0.004945704 -0.0011952019 0.0027046448 0.005013487 0.0026161284 -1.6200567e-05 -0.0032366526 -0.0033359593 0.0023032352 -0.0033351313 1.7959253e-05 0.0023784717 0.0028445297
dynamic 0.0034900028 0.0035763388 0.002209156 -0.0047220085 0.0043401173 0.003348352 -0.00024152629 0.00028040673 -0.0026880929 -0.0024809958 -0.0015972831 0.00343623 0.0017737433 -0.0027613211 0.0016599376 -0.0012053883 -0.004189972 0.004948754 -0.0036069916 -0.003364053 0.0046304557 0.004466862 0.0037024354 -0.00085378624 -0.0013581667 -0.0037347814 -0.0002010251 0.0026385507 -0.0006608472 0.004828274 -0.0028200867 0.00042809613 0.0025458413 -0.0014177219 0.003844873 0.0040920423 -0.0021296127 0.004740741 -0.002650705 0.0014663747 -0.0010404799 -0.00011408741 -0.0024961808 -0.001463404 -0.0030068588 -0.0036509759 0.00042988404 0.0046373163 -0.0014358637 -0.0023995317 -0.0031808394 0.004031462 -0.0008799796 0.00019033936 9.401456e-05 0.0011484456 -0.0016470365 -0.0015054182 0.0036464413 -0.00011850303 -0.0049858065 0.00030596807 0.0036256076 -0.00071926153 0.0011470058 0.0024492238 0.0016100078 0.0019874095 0.0032192478 0.0026025984 -0.004857049 -0.0018695022 0.0039642532 0.00317324 0.001223661 -0.0029257087 -0.00017332214 0.00079414004 0.00030615984 -0.000422708 0.0043421974 0.002231785 -0.00384871 -0.0045278165 8.241278e-05 -0.0007013005 0.0024116596 -0.0029356624 0.0020346567 0.002179522 -0.0020606436 -0.0018694934 -0.0040493263 0.0021474108 -0.0026221494 0.0010713045 -0.004766078 -0.0011679542 -0.004016926 -0.0014797664
curve -0.0048895176 -0.0028635494 -0.0020224927 -0.004078334 -0.0029868763 -0.0046838424 0.004401383 0.0020112041 -0.002519668 -0.0013595093 0.00070699735 0.0041884584 -0.0014614064 -0.00052680395 -0.0029467302 -0.0034388604 6.558419e-05 0.003707803 -0.0019284417 -0.00252689 0.0011614553 0.002049496 0.004884153 0.0016908129 0.00024820387 -0.0041308943 -0.0018948332 3.353114e-05 -0.0035892297 0.0031945615 -0.0008787013 0.0013991588 0.0039728316 -0.0026821592 0.0040805936 0.004616298 0.0036413502 0.0023126402 -6.8249545e-05 0.0019482188 0.0029480793 -0.0049548037 0.0013796866 -0.0043942523 -0.0025968235 -0.0027394402 0.0038293556 -0.0009302775 -0.0005608204 -0.0037863643 0.0035955596 -0.0019866722 -1.6220109e-05 0.0031696016 -0.003974824 -0.0045641772 -0.0030319544 0.0034045374 -0.004811818 -0.0002609818 0.002191886 -0.001656789 0.0019857003 -0.0033138222 -0.0046925843 -0.0018768619 -0.0011384151 -0.0025643734 -0.0023800894 0.0037918484 0.0018814635 0.0008398717 -0.0036569245 -0.0022339663 -0.0017872339 -0.0003351062 -0.0028394186 0.0034553679 -0.0025004996 -0.00470169 0.0045638187 -0.002069345 -0.00033422402 0.0024252185 -0.0010559944 0.001229645 0.0046923594 0.0022050734 -0.004610165 0.0048828404 0.0010020438 -0.0011510905 0.0038518982 -0.004764147 0.0032314619 0.00496603 0.0017049277 -0.004035792 -0.0023499653 -0.0022843487
learning -0.0016759667 -0.0005750979 -0.0039529107 0.0018805364 -0.0045882603 -0.0024434812 0.0012076189 0.0030009665 -0.0031964295 -0.0018348941 0.001434805 0.0015476089 0.004532578 0.00018714808 0.00064279063 -0.004035009 -0.0015979927 0.00461524 0.0016699637 -0.0042642523 0.0028420386 0.0014732688 0.004755201 0.0023483257 -0.0031469576 0.0029095032 0.00076378527 0.00021219789 -0.004173922 -0.0011588555 -0.0034058166 0.0021333855 -0.0019467865 0.0031946753 -0.00065414276 -0.00492652 0.004716059 -0.0003603887 -0.00012250239 0.0013515137 -0.0019403981 -0.00035883387 -0.0020524925 -0.00027781466 -0.0012276161 -0.0047360277 -0.0020559875 0.0024032863 -0.0021688018 0.0027746086 -0.0025811724 -0.003504787 -0.0037523224 0.00078412297 0.0047133486 -0.0032560648 0.0033796586 0.0005844051 0.0004237522 -0.0047645997 -0.0031297493 0.00022320496 0.000924116 -0.0012625402 -0.00042754877 -0.0016882615 -0.00087817764 -0.0011432638 -0.0026239518 -0.0045470074 -0.001308769 -0.0031356711 0.0045082094 0.001543523 -0.0022808604 -0.0028770885 -0.0036829622 0.0005163787 -0.0027865819 0.0010440642 0.004662207 0.0044926656 0.0014238234 0.0020022478 -0.004932648 -0.0024882408 0.0045460504 -0.0007217533 0.00060560304 0.0037266598 0.0034488642 0.0040022945 0.0011692106 -0.0030317325 0.0009952318 0.0015801269 0.0045871795 0.0018412939 0.0037617676 -0.0032604241
communication 0.004844711 0.0019104624 -0.00090569945 0.0036191794 -0.00284859 0.004157866 -0.0046652835 -0.001138687 -0.0036151768 -0.0019062975 0.0027351906 -0.0018118885 -0.004520696 -0.0013473377 0.001971486 0.0012940487 0.001159308 0.004448539 -4.930594e-05 -0.0036254423 0.0010467466 0.0038485022 -0.0022563045 -0.0022276554 -0.0024071247 0.0022740278 -0.000618328 -0.0046548317 0.0034356865 0.004926965 0.003657721 -0.00042170423 -0.00018407259 0.0022059449 -0.0007562557 -0.00063781085 0.0015655375 -0.003523875 -0.0041965116 0.0011431408 -0.0025756522 -0.0019726963 0.0021869747 -0.0018736222 0.0045241136 -0.003049123 0.004994596 0.0014649393 0.0029597816 0.0036316556 0.004429548 -0.0024813039 0.0037478274 0.00018571709 0.0038612806 -0.0017474698 0.004042985 -0.0004422494 -2.7568234e-05 -0.0006817391 0.003767002 0.0037007153 -0.0048828237 -0.0039113685 -0.001777899 -0.0005513475 -0.003533502 -0.00061093405 -0.0042544226 -0.0026287057 0.0030263485 -0.0045031253 -0.0027377394 -0.0023234314 0.0034781997 -0.0010965833 0.00048879033 -0.0037229974 -0.0029191875 -0.0045311525 0.001276079 -0.0017966921 -0.0013220488 -0.0017463232 -0.0021464624 0.0019954 0.0017897381 0.00058341137 0.00023366978 -0.0017382996 0.0026253895 0.0023071163 -0.0031787916 0.003038908 0.00037236858 -0.002390984 0.0046773995 0.003444485 0.0009066474 0.0042236643
data 0.004832543 -0.0020918376 -0.004756131 -0.00265155 -0.0016259059 0.0017103273 -0.0020140335 -0.0037620128 0.0030204216 0.0033619313 -0.0019600908 -0.004193147 0.003683717 -0.0022563376 0.0048457435 0.0029192925 0.0042392006 -0.0014928293 0.003232859 -0.003991976 -0.000623768 -0.0038875972 0.0045610806 0.0029348074 -0.004709912 -0.0015039911 0.0013729202 0.0033847117 0.0008342326 0.0033772446 -0.0042015403 -0.0043481584 0.0007535712 0.0017170552 0.0016311917 -0.0010373647 0.0033454208 -0.0013847869 -0.0031718712 -0.0014057979 -0.0014616901 0.0042064013 -0.003404381 0.0037139065 0.0048709316 0.0003444512 -0.0014379269 -0.0010908257 -0.0006881242 -0.0037801713 -0.0035610313 0.003999416 -0.002738934 0.0009875922 0.0039118472 -0.0022563178 0.00064212264 -0.001469631 0.0022647022 0.0013062329 -0.0024270094 0.0038283493 0.0037128243 -0.0002660292 0.004282005 -0.004482172 0.0026128648 0.002891147 0.0014524711 0.002170864 0.003343748 -0.0030064604 0.0025503852 -0.0034537844 0.0043343958 -0.004680651 0.0027663028 -0.0011179539 -0.00374208 0.0017049517 -0.0023053817 0.003068832 0.0028779977 0.0043279645 0.004223279 -0.0042156605 -0.00076233776 -0.0003255018 0.0010620896 0.0013265728 -0.0040850462 -0.0036527182 0.0014358686 0.0016447015 0.0016586091 0.0041816817 -0.0033774541 -0.004548481 -0.0027485115 0.0030454025
visual 0.0035194205 -7.854846e-06 0.004804623 0.004290388 0.002189122 -0.0038293926 0.0037055716 -0.002246155 0.002818129 -0.0032995977 0.0019373901 0.004999733 0.004652747 -0.0022040515 -0.0027212836 -0.0024096968 -0.00025460625 -0.00016233456 0.003941006 0.0028104717 0.0014091553 0.0015294031 0.0016564562 -0.0034006608 -0.0020018767 0.0033855333 -0.0031016306 -0.0013154797 -0.00049413566 0.000584518 -0.002451352 0.0047955476 -0.0033058354 -0.0016368016 -0.0022080918 0.0012319594 -0.004151543 0.001484231 -0.0039378027 -0.0014036054 0.0007106444 0.00046736875 0.0018676573 -0.0004959193 0.0019358529 -0.0012408196 0.004907788 0.0023069168 0.00422596 -0.0014199194 -0.00095138815 0.0030328403 0.0013046056 -0.0034764311 0.003842658 0.0010653291 -0.0046238685 -0.00053345354 0.00071411795 0.0011529475 -0.0014948262 0.0036010318 0.0021219251 0.0018607272 -0.0046622376 -0.000817306 -8.086553e-05 -0.0014989913 0.0049432674 -0.002067805 -0.003796044 0.001590286 0.0017980803 -0.0029448397 0.004229878 -0.004580754 0.0013770442 -0.0039610607 0.0047846944 0.0006509177 0.0008329035 -0.0013489216 0.0015463468 0.0013986292 0.0034851274 0.0034118106 -0.000174625 0.000553004 -0.0037288715 0.00382163 0.00050708075 0.0013269653 -0.0016934597 -0.00022122575 0.00085531635 0.00395147 -0.0033042945 0.00086085685 0.0032844006 -0.0032143432
load-balancing -0.0036773582 0.0020292108 0.0007716042 0.0019214342 -0.0021898523 0.003413644 0.0035209008 0.0013595572 2.3270998e-06 0.0013877484 -0.0039759553 -0.0015891301 -0.0011012652 0.0024864427 -0.0040269713 0.0025375192 0.0011287662 7.065049e-05 -8.0996084e-05 -0.0001374432 0.0021164375 0.001308874 0.00079556 0.00091483135 0.0015749213 0.0025011867 0.004225178 -0.0039254464 -0.0009889622 0.004741079 -0.0019832524 0.0021275973 -0.0047460957 0.004705504 -0.0028966176 -0.0019621584 0.0015826318 -0.004825681 0.0007016798 -0.004456476 0.0018541778 -0.0037716513 0.002325427 -0.00015583257 0.0011702211 -0.0039297948 -0.0023758814 -0.0024927962 -0.0019168172 -0.0022817007 -3.8892426e-06 -0.0026892151 -0.00023962317 0.001061471 -0.00042229463 0.004546622 -0.004724952 0.002160344 0.0038219641 0.0027428935 0.004608165 0.002871297 -0.0022794474 -0.0011645677 0.00043552998 -0.0015535969 -0.0015939332 0.0028589799 -0.002572722 -0.004987186 -0.004882179 -0.0020929459 -0.004568383 -0.0004865942 0.0018643321 -0.00502482 0.0025880083 0.004887953 -0.0033866747 0.0030586596 -0.004436579 -0.004940063 -0.0042107403 0.0031557174 0.0026670827 0.0032791907 -0.0023414737 0.0029929532 -0.0018028038 0.0015601737 0.0044905343 0.0035263256 -0.00018920375 0.003722394 -0.001333921 -0.0037897346 0.0016071424 0.0029629332 -0.0018313932 0.003170813
features 0.0033550153 0.002284782 0.0014253441 -0.0035485202 0.0012257717 0.0032252774 0.0031315053 -0.0032595722 0.00023803994 0.0013741985 0.004843408 0.0029440061 -0.0011715522 -0.0047278535 -0.0029311287 -0.0040962365 0.0041844086 8.470543e-05 0.001769366 -0.0045550857 -0.0029507203 0.001006558 -0.0009595665 0.0015798921 -0.0045945477 -0.0042865304 -0.0011713703 -0.004991626 0.00041717818 0.004886652 -2.0828707e-05 -0.0008336518 -0.00055342726 -0.0037312193 0.0024039084 -0.0030473243 0.0049303146 0.004753504 -0.0042322413 -0.0026673733 -0.000290267 -0.0013590147 -0.00023295921 -0.00084317423 -0.004345403 -0.000997509 0.00061692076 -0.0028209423 0.00032622815 0.0016684848 0.0014606465 -0.004954465 -0.0047396203 -0.0011736467 -0.0009726866 -0.0011152349 -0.0027176451 0.0033083512 -0.004545628 -0.0038050788 0.003830521 9.4379124e-05 0.0020735525 0.0031394348 0.00474051 -0.003926727 0.0032102691 -0.001329757 0.002851896 0.0006415836 0.0034057703 -0.000728498 0.0032793244 0.0031913018 -0.0038161632 0.002985264 0.004754166 -0.004312492 0.0011687757 -0.0014246777 -0.003665314 0.0025430687 -0.003767799 0.003322123 0.004117542 -0.003885031 0.0029443973 0.004346622 -0.0039040318 0.001359927 -0.0027620245 0.00010195558 -0.0019628052 0.0019772993 0.0033728965 0.0028980628 0.000113863345 -0.0037872414 0.00088170543 0.0017389047
classification 0.00051834795 -0.0036886178 -0.0049004545 0.003557806 0.0028651704 0.004395023 -0.0042269207 -0.004515804 -6.691956e-05 0.0029223366 -0.003495792 0.003919118 -0.003938842 0.0038873714 0.00215576 -0.0036656805 0.00024175075 0.0018622171 0.004464299 -0.0011176803 0.0036212828 -0.0012434222 -0.0013119921 0.0021542958 0.004083994 0.0030110946 0.0042408784 0.00075604673 0.004999757 0.0011908981 9.699928e-05 0.0026627842 0.0035327699 -0.0014744068 -0.00027720092 -0.0012242619 0.0019751363 -0.002528807 -0.00439783 0.00021404312 0.0020003654 0.0026096208 0.0046959305 -0.0029068578 -0.001125204 -0.001273179 8.470373e-05 -0.00034860807 -0.0011081985 0.0024931966 -0.0005374124 -0.0046610273 0.0025669506 -0.00045367613 0.0048639434 0.0009867686 -0.0018563274 0.0037739472 0.0018220636 -0.0028546858 0.0019203773 -0.0032328404 -0.0036222725 0.0035888902 0.0035641845 0.0019060705 -0.0034115245 0.0033357407 0.0016535427 0.0027108106 0.0028577575 0.0021578171 0.0043273186 -0.0027333505 -0.0011492949 -0.001563296 -0.0036862115 0.004015936 0.0032247882 0.0003435523 0.0018685678 -0.0023008634 -0.004205976 -0.0035134747 -0.0024040877 -0.00047680314 -0.0011230013 0.00030644212 -0.0045143664 0.00033315917 -0.001255417 -0.0007115359 -0.0013821552 -0.0040450604 2.1691312e-05 -0.003495983 0.00053990737 -0.0035960793 -0.004127912 0.003695892
technology -0.002383069 -0.004195086 0.0029973635 0.0045384434 0.002828026 0.003794559 0.0049400628 -0.004351668 -0.0019317912 -0.00037722255 0.0028973226 0.0019374056 0.003198458 -0.0018686926 0.0003876149 0.0036489055 0.001893634 0.0021226776 -0.0007710998 0.00081418385 0.0006085487 -0.0029057143 0.0025903878 0.0017638702 0.0037206751 0.0038581912 -0.0012975772 0.0045959665 -0.0032284905 -0.0047033024 -0.0015235117 -0.0017409822 -0.0011023361 0.0010004432 -0.0018196839 0.0015618444 0.0038286038 0.0012998533 0.0023319838 0.003724844 -0.0005153086 0.002623121 0.003627113 0.00017132088 -0.003835146 -0.00079072657 -0.0026630168 -0.0027814067 -0.004219738 -0.0016270725 0.0010189156 0.00012607597 0.002594513 -0.0017850633 0.0019423672 0.0023566033 -0.0030599835 0.0025187535 0.004983762 -0.0026983856 0.004748103 -0.0023406777 0.0016056143 -0.0038554522 0.0032094086 -0.0004176868 0.0029666729 0.0016613741 0.0021674861 0.0001626167 -1.6920014e-05 0.0032291308 -0.002534809 0.0012694397 0.0046769204 -0.0016744324 -0.00081353437 0.0008095671 -0.001880038 -0.0042307433 0.004124793 0.0023825367 0.0033252523 0.00066862255 -0.0021583652 0.0049214847 -0.0039708554 0.001862106 -0.004049131 -0.0009474876 0.0042940304 0.0015631894 0.0016043499 0.004636953 -0.00089899584 0.0010043548 0.0015357465 -0.0023292613 -0.0038409585 -0.004890955
mining -0.0041726395 -0.0039147437 0.001994239 0.0040409407 0.0019992096 -0.0035837283 0.0046048984 -0.0025986023 -0.003985295 -0.0032777672 -0.004935317 -0.0024472142 -0.0016464454 0.0042073117 -0.0016787098 0.001532498 -0.0014972622 0.0032719846 0.001193906 0.0038788551 -0.004101958 -0.002728097 -0.0036984489 -0.0025397486 0.00081713544 0.00023001683 0.0025030328 -0.0027936741 0.0037822465 0.0030503632 0.0044965176 0.0016479278 0.0008200966 0.00020045308 0.0028828338 0.0041676173 0.002983739 0.0025083243 0.002110427 0.0035709706 -0.001893771 -0.0033959975 -0.004906452 0.0015583227 -0.002856571 -0.0037351267 0.0037962848 -0.0044407914 0.004386557 0.0004134792 -0.0037073544 0.004120299 -0.0004934356 -0.00090749434 -0.0024159583 0.00051958417 -0.00021585327 -0.0026212712 0.0019347928 -0.0034775203 -0.0010925352 0.0016587914 0.003796061 0.0032486322 -0.0012357659 -0.003927563 -0.0041860994 -0.002044457 -0.0012601007 -0.0025596805 0.004255913 -0.0011919439 -0.004264164 -0.001435178 0.002920719 -0.0036070296 0.0026577327 -0.002514981 -0.0024517712 0.0034164228 0.001092506 0.0038968897 -0.00213263 0.0023612555 0.0025436645 -0.0045755943 -0.0013204326 -0.0047154413 0.0004891172 -0.004088909 0.00063276646 -0.0014682111 0.0048087332 -0.0028724778 -0.00056124554 0.003050694 0.0018736658 -0.0025585296 0.0036394843 0.0011352893
empirical 0.0010961037 0.004717142 -0.00293083 -0.0041823345 0.001956821 -0.004441377 -0.0036584535 9.9474586e-05 0.0031884776 -0.0029101893 0.00136608 0.0049428614 0.005003405 0.0030560608 -0.00022053506 -0.0018557482 -0.002831568 0.003754186 -0.0034979146 -0.0008743919 -0.0036847088 0.00088729576 -0.00031797125 -0.0022478849 0.00017903243 -0.0019207067 0.0007210802 0.002633114 0.0045351814 0.0008974164 0.0020884941 0.0014329308 -5.7584315e-05 0.0032953767 0.004975203 -0.0038872808 0.0014182564 0.00021145608 0.004157391 0.0044630007 -0.0035756251 0.0036514679 0.0027217197 -0.0020720225 -0.0012190662 -0.0014641916 0.002349597 8.624478e-05 -0.0044595823 0.00021153905 -0.0022025623 -0.004146385 0.0047431965 0.0045081633 0.00086963567 -0.0015937475 -0.0031546624 0.0007610376 -0.0025573776 0.0030535932 -0.0019102348 -0.0042915964 0.0029378976 0.0049495385 0.0030648408 0.0007557102 -0.0014953953 0.00351931 0.0029203391 -0.00021113594 0.00092185073 -0.0014542171 -0.0028803132 -0.004071038 -2.652424e-05 -0.00031329863 0.0018898966 -0.00056992396 0.0043951403 0.0028912623 0.0009102263 -0.0041447286 0.0037079481 -0.002783026 0.0028673157 0.00024057625 0.0031553814 -0.00062761933 -0.0026310575 0.00341749 0.004269631 -0.001302842 -0.004640513 0.002008533 -0.002294005 -0.002962088 -0.004402003 -0.0006163574 -0.0038304636 0.004716354
based 0.0021644318 0.0016405806 -0.004625064 -0.00024511415 0.0025364126 0.004219961 -0.00026021365 -0.0034514386 -0.0013666034 -0.0025356575 -0.0038992774 -0.004051011 0.0017135129 0.0015246803 0.0041511278 0.0021602353 0.00034589146 -0.0031247225 -0.0028354607 0.00019207355 0.0011960485 -0.0041648005 -0.0021649897 -0.000923876 -0.0042643226 0.004193224 0.0011390005 -0.002464164 0.004920429 -0.0006245946 -0.00070564833 -0.003533493 -0.00017947989 0.00491351 -0.0042619575 0.0033262009 -0.003495072 0.0012377261 0.0018177014 0.00069064344 -0.00030784283 -0.003592148 0.0012520546 -0.0026941006 0.0019976276 0.0046155094 0.0035374977 -0.0041622077 -0.0038317034 -0.00077466876 -0.0041081384 -0.004699806 -0.0018015108 0.0032964887 -0.0034755182 0.0005074152 -0.0031226657 0.0034084173 -0.00063101534 0.00022459663 0.00083615514 0.0039576422 0.0045272824 0.0018979489 0.0043133427 0.0033572316 -9.463482e-05 0.004693927 0.0033447274 -0.0033949185 -0.0043977965 -0.0026295227 0.0042564827 -0.0037423056 0.0004400129 -0.0006124657 -0.0019569378 0.0032260357 -0.00038747914 0.0025621688 -0.0024193372 0.0017722996 0.0005535441 0.0017281816 -0.0020315365 -0.0044014957 0.004639227 -0.0010235502 0.00017392013 -0.0011008416 -0.0011970622 0.003328224 0.00040360654 -5.7831363e-05 0.004110712 -0.003439264 0.0015302497 -0.0032406019 0.0027718015 0.0003662107
instance -0.00097373256 0.0028697567 -0.004282533 0.00073487416 0.0032706272 -0.0042710635 0.00067045836 0.000862053 0.003239935 0.0039757513 -0.0048427675 0.0002589513 -0.0027314182 0.0048710727 -0.00038875474 -0.002714651 -0.0042759404 4.195147e-05 -0.004879119 0.0028794338 0.004304131 -0.0024989177 -0.0030451566 -0.0018717606 0.001809696 -0.00019068748 -0.0041755578 -0.0008309718 0.00042707752 0.002787267 -0.0020618262 0.003031166 0.004590558 -0.004550586 -0.0016240749 -0.00085303845 1.4267265e-05 -0.00379311 -0.0022354324 -0.004199215 0.0038331363 -0.0005726509 0.0047339126 -0.0019318855 -0.0039729136 0.0011875301 -0.0021114165 0.00096629316 -0.0011822276 -0.00026790408 -0.0045412537 0.0020235716 -0.0027388486 -0.0044873166 -0.0014797031 -0.0025115632 0.000353063 0.004320049 0.0002765708 0.0025619122 -0.00284094 -0.0005227885 -0.00059249875 0.0021089015 -0.00015040544 -0.00012436559 0.0029152606 0.00423852 -0.0014041782 0.0036344195 -0.00063140725 0.0020544466 0.0039805984 -0.0013381131 -0.0020689068 -0.002377729 0.004239749 -0.0029508204 -0.004525372 -0.0016804411 0.0016093157 -0.00040173833 0.0009978894 0.0012342464 0.0014238455 0.0034844405 0.0002825174 0.0027941847 0.0047000027 -0.0036930167 0.004154902 -0.0036163605 -0.003932046 0.003941484 -0.004844031 -0.004324822 0.0013378592 0.0005440259 -0.0010067708 -0.0045468113
algorithms 0.0006150009 -0.0040698242 -0.003685757 -0.0026974028 0.0040781014 -0.0012010918 0.002271444 -0.0010051903 -0.0031683494 -0.0031574916 0.00041446727 -0.0018836147 0.00061307737 0.0048506293 0.004917789 -0.0009239029 0.00033555634 5.792723e-06 0.0025874274 -2.7953747e-05 -0.003828585 -0.004892851 0.0002743832 -0.00053247064 0.000493149 -0.0033147552 0.0015910271 -8.099597e-05 0.0038132456 -0.0019333097 -0.0038192412 -0.003443401 -0.004818091 -0.0034136372 0.00053476315 -0.0006314248 -0.0024789702 -0.0021563617 -0.0034450344 0.0039740163 0.0035083066 8.288412e-05 -0.00093378895 0.0020292476 0.0017029917 -0.0031359156 0.0047818786 -0.002457689 0.0010163699 0.0015019448 -0.0010292402 0.002569618 0.0010367762 -0.002546612 -0.0038866422 -0.001851569 0.0041065207 0.00069627666 -0.0006114366 0.00015985966 0.002799508 0.0020445844 0.0028046814 -0.0033156557 0.0021448804 -0.0038602417 -0.00040450375 -0.00081774493 0.0004993586 0.0026820602 -0.0047141626 0.003251227 0.0020761092 0.00047391772 0.0027555975 -0.0029375064 0.003852041 -0.00067496777 -0.004701126 0.00331399 -0.0018307868 -0.004755011 -0.0025277438 0.002316313 0.001196711 -0.0017010707 0.0031888247 -0.0017359164 -0.00022985239 0.0049335593 -0.0045246235 -0.00040951453 -0.0011222564 -0.003981265 -0.0027834969 -0.0017241292 0.0036726433 0.003951823 6.3733474e-05 0.0040921667
programming 0.0041723778 -0.0035630353 0.0016769152 -0.0049830964 -0.00460902 0.0037322075 -0.0027626958 -0.0035248986 -0.0012332913 0.003085442 0.004521196 -0.003091805 -0.0040610395 0.004484171 0.0029068282 0.0049260324 0.0025706047 0.0039671347 -0.00036850842 -0.0017225093 0.0023601344 0.0021393152 -0.0028924982 -3.0556948e-06 -0.00072318886 -0.0043922225 0.0019530276 -0.0027253318 -0.0039467956 -0.0011993307 -0.0014709771 0.0047825207 0.0035427928 -0.0014768523 0.0030098055 0.003305286 0.0041698623 0.004847921 0.004492408 0.0013880057 -0.0020028055 -0.004590334 0.0008080442 -0.004737332 -0.0034792612 0.0032230366 -0.0018521484 -0.0025309762 -0.0022745419 -3.1750862e-06 -0.0031854215 -0.004168488 -0.0032420908 -0.0025784865 0.00015771198 0.0033525384 -0.0034152765 0.001972655 0.0005208362 0.0018924176 -0.0021172562 0.0016513738 0.00236425 0.0024828257 0.0014623065 0.0017330992 -0.00013912078 -0.0037866984 -0.003799798 -0.004057001 -0.003603271 -0.0038429748 0.00097528746 0.0036573883 -0.0030396448 0.0015575145 0.0019118277 0.0022150292 0.0014440271 0.0035789341 -0.00041310312 -0.002243468 0.0020041175 0.0009068214 -0.0030572282 0.004766792 -0.0004066164 0.0038276745 -0.0005264322 0.001744949 -0.0011379453 -0.0039189546 0.0011387496 -0.00025216304 -0.0024160421 -0.0034278147 -0.0027668497 0.0027665126 0.0042582126 -0.004986492
compression -0.0029821366 0.0026212472 0.003912205 -0.00039714112 -0.0012015771 -0.0016465252 -0.0042483667 -0.0026561262 0.0028554783 -0.0038792673 -0.002534091 0.004926763 -0.002040321 -0.0021530276 0.00096206204 0.00069952843 0.0036529119 0.0027391503 0.004031774 -0.004013376 0.0046125758 -0.0012655597 0.00079924206 0.004225118 -0.0021484713 -0.0040330277 -0.00040964794 -0.002957262 8.273657e-05 -0.00046389725 0.00332404 -0.001367438 -0.0035341436 -0.0018494047 0.0029914107 -0.0021676747 -0.0014530738 -0.004338733 0.0026146327 -0.004151024 0.0040874393 0.00037536497 0.0007916948 -0.0021524227 -0.0027865802 -0.0038602757 -3.587852e-05 0.00074290583 0.0040399916 -0.0044274274 0.00418945 -0.0041623367 -0.00033731095 0.00033155296 -0.00425971 0.0013753105 0.004630637 -0.0016076987 0.0038063787 -0.0011004955 0.00071619253 -0.0037715503 0.00048113562 -0.0041192747 -0.0032195386 0.0021588001 0.0028957753 0.0002727402 0.001406078 0.0011939598 0.0035357391 -0.0039818063 -0.0018617706 -0.00091719895 -0.0030575253 -0.00076249125 -0.0009876861 0.004146018 -0.0032018481 0.00047901343 0.00040962643 -0.00380972 0.0003141479 -0.00045164474 0.0024817088 -0.00086159946 -0.0006996483 -0.0034112316 -0.0024121203 0.0011257966 -0.002142308 0.0026388292 -0.0016875318 -0.0047086095 -0.003432811 -0.0047711027 0.0021619212 0.003277179 -0.0018619504 0.0016057757
engineering -0.00012524784 0.00043600987 0.0008091661 0.0007566778 -0.00095234317 0.001329799 0.004931642 0.00061365793 -0.004008069 -0.004306808 0.004287004 0.00050806336 0.0015320039 -0.00018068608 -0.0020627088 0.004095165 0.0020081943 -0.0017723759 -0.0009723357 0.0028407057 0.003113953 -0.000748326 0.0014252329 0.0011003482 -0.003806395 -0.0026009495 0.0035231395 -0.004348236 -0.00023856008 0.0033189573 0.0040841564 -0.00091554894 -0.004292793 -0.0010880032 0.0014914747 -0.0019396078 5.42687e-05 -0.003883583 0.0038160463 -0.0025792373 -0.0018147053 0.00097560114 -0.002226214 0.0043905014 -0.0009937899 0.0006929763 0.0020081413 -0.0008571036 0.0049429033 0.0014157072 0.002475384 0.0008121606 -0.0018040921 0.0046243984 -0.004935963 0.00094476866 -0.004783583 -0.0048592375 0.004130573 -0.0026613977 0.002874964 0.0037053106 0.0010237055 0.0027963382 0.0040359306 0.0038863416 -0.0032426887 0.0046792706 0.0025645075 0.0044481875 0.0040546427 -0.0043181432 0.0034040648 -0.00050286547 -0.003988875 0.002126323 -0.0027008003 -0.0049279407 -0.00424622 0.0015493572 -0.0048451102 0.0036111462 -0.0025216632 0.0033038736 -0.0049270373 -0.00445144 -0.004053927 0.0014134484 -0.0013524692 0.0013279855 0.0015231995 -0.0014819995 0.003979029 -0.0023816018 -0.0031904534 0.0045346585 0.0032288786 0.0010792612 -0.0018583564 -0.0045506465
vectors 0.0029254884 -0.0033284721 0.0034156034 0.002132456 0.0032684952 0.0032072589 0.0006049954 -0.0037666548 -0.004944381 -3.935151e-05 -0.0049855267 -8.2613646e-05 0.0040869354 0.0010850962 -0.004111618 -0.0013154972 0.003101244 0.0030192926 -0.0041738483 -0.000742723 -0.0015482684 -0.0034908364 -0.001576218 0.0034544412 0.002270969 0.0007840877 -0.0037476574 0.00018634123 0.0050074495 0.0012103284 0.0010760772 0.0025211063 -0.004196658 0.004937328 -0.0025621757 0.0015038569 -0.0014669251 -0.0024373673 -0.0019616468 -0.003260463 -0.0033411009 -0.0013199396 -0.00048167666 0.0043888115 0.0031408386 0.0034986245 0.0016849675 -0.0027374031 -0.003762176 0.0020069922 -0.0047586323 -0.0016750925 -0.00045766708 -0.004854681 0.004464336 -0.00035324827 0.0031491367 0.004073298 -0.0037996052 -0.001201967 0.0020824322 0.0008328154 0.0017989633 0.0024170955 -0.0032994791 0.0040803524 -0.0028272425 0.0006539743 -0.0002099294 -0.0010123962 0.0040293075 -0.0014959 0.001315049 -0.004986205 0.00079724356 0.0043909494 -0.0027718067 -0.0017821181 0.0033399335 0.0008473733 0.0024349787 -0.0013768555 -0.0009161304 0.004233248 0.0021034994 -0.004091625 -0.0048274435 0.0022843066 -0.0032902923 -0.0021549559 0.0043491987 -0.001145531 -0.0032690654 -0.0038721007 0.0031392507 0.0035581535 -0.003596177 0.004519826 0.0008190161 -0.0036433183
intelligence -0.002115827 0.0017712044 -0.0011381855 -0.002062004 -0.0010798062 0.001644882 0.00208106 -0.00081323733 0.0015186907 -0.0026606014 -0.0011971503 0.002725774 0.001999596 0.0040246923 0.0016987534 0.0020438572 0.0033043022 0.003082777 -0.0035941687 0.0040456173 0.0025276663 -0.0010807781 -0.0044510695 -0.0022765552 0.0047012726 -0.0041825147 -0.001217712 -0.002347023 -0.0008354064 -0.0022114238 0.0027733014 -0.002925833 -0.004488634 0.0026584093 0.00241794 -0.0024833432 -0.0018903547 0.0048277075 0.003900238 -0.000534845 0.0021566632 -0.00028988085 0.0024792007 0.0012752052 -0.0049730884 0.00041124443 0.0024657582 9.3983675e-07 0.0015915602 0.0018856876 -0.000513866 0.0012934793 -0.0029505156 -0.0046280804 0.0040746606 0.00016248056 0.00037193872 0.0012087098 -0.0008890399 -0.00236914 0.0023086944 0.0029965865 0.00044537245 -0.0015307756 0.004965898 0.0009793508 0.001588646 0.004137597 0.0006037188 0.0010770165 0.003301261 0.0034619204 -0.0022656007 -0.0004945949 -0.0029566765 -0.0010223076 0.0031215558 0.0026701589 -0.004715564 -0.0020142347 -0.004553193 -0.00016446486 0.0022103956 -0.0036798406 -0.003691405 -0.0027872347 0.0020332127 -0.0014025131 0.0012590805 -0.0023071025 -0.004001056 -0.0035029603 -0.0039000406 0.0037925637 -0.0020008893 0.0010600785 -0.004773648 4.1512114e-05 0.0028161684 0.0019622473
wavelet 0.0014761385 -0.00030276098 0.0036663243 -0.0021854863 0.0013465635 0.00055247085 0.0043460163 -0.0028133106 -0.004862167 4.301997e-05 0.0037808707 0.0042299037 0.0028101893 -0.0032138145 0.0019532829 -2.911623e-05 0.0028839568 -0.002454153 0.0019255991 0.004369629 0.0029941162 -0.0041071298 1.1037127e-05 0.0019001805 0.00030692783 0.0023508137 0.0009357651 0.0043989387 -0.00061735994 -0.0042318697 0.0032439337 -0.0031004231 0.0044576796 0.0038336152 0.002440481 -0.00360525 0.0033784024 -0.0020863707 0.0017091655 -0.0018342738 3.1449938e-05 -0.0049654855 -0.0034458616 0.0023978949 0.0041853557 0.00022454454 -0.004513931 -0.0014988938 -0.0016463344 -0.0025281543 -0.000623485 0.00030160573 0.0039521796 0.000751147 0.0042332145 -0.0042205066 -0.0015548766 0.0009036872 0.0018463524 0.003695858 -0.0015069927 0.00047815114 -0.004321601 0.0047106836 -0.0038812018 0.0044230036 0.0033558516 -0.00017069573 -0.002932484 -0.002345513 0.0007491599 0.0004519136 0.0040655513 0.0015381544 -0.0017031613 0.0038628175 0.0031080537 0.00397257 -0.0046839737 0.0029100564 -0.0025397132 0.00225027 -0.0020493504 -0.0031531034 0.0016451046 -0.003156037 0.0005493197 0.0011918078 -0.0037078587 0.0046184617 0.0029454497 -0.004966115 0.0029716142 0.0014032763 0.0040732305 -1.5741816e-05 0.0007897583 -0.0029983642 0.0049503655 -0.003523822
recognition 0.0025293261 0.0030458155 0.0015006998 0.0027332813 0.0014724502 -0.0032301052 -0.0023006832 0.0042731403 -0.002687379 -0.0033764967 -0.00418934 -0.0009242302 0.0024150398 -0.0041734856 -0.0043170643 -0.0048678103 -0.0031539013 -0.0018710045 0.001032352 -0.0032014903 0.0009126174 0.0028031617 0.0031833677 0.0049293847 -0.004793533 -0.001878613 -0.0015233371 0.0014254448 -0.0002926827 -0.0042152517 -0.0025633737 0.0025687786 0.003067298 -0.0044866772 -0.0020524792 -0.0036270632 -0.0032498105 0.0035905428 5.656204e-05 0.00476797 -0.0040085604 -0.00048541874 -0.00072208914 -0.0041669565 0.0026272624 0.0021399034 -0.0006486322 0.0018960666 0.0022462662 -0.0018957263 -0.0040726103 0.0041880766 0.0026205487 0.0033906754 -0.0024356279 0.0031057594 -0.0020704274 0.00080694136 0.001621455 -0.0013167865 -0.0005546863 0.0044124555 0.00096653844 -0.0030570074 -0.0026179235 0.0043002916 0.0018500377 0.00242396 -0.0041399887 0.0029249764 -0.0007728665 0.0009513763 -0.0023969393 0.0042812843 -0.004076512 -0.0010336175 -0.0030734634 -0.00096107094 0.00019367777 0.004496009 -0.0038778535 -0.003970936 0.00044421348 0.003867707 0.0013935611 -0.003950921 -0.00088747847 0.0012235902 -0.0011610237 0.0036041422 -0.003390783 -0.0040218807 -0.0019637006 -0.003158058 -0.0034102881 0.004477891 -0.004101597 0.0010007444 0.0034046618 -0.0007140491
string 0.003275573 0.004137335 -0.0046007307 -0.004828186 0.0014519246 -0.0015809714 9.467733e-05 -0.003483724 -0.0027167376 0.00433551 -0.0017704717 0.002698065 0.0033335316 -0.0036981057 0.0013760949 -0.0025242362 -0.0005272677 -0.00069035013 0.0019208298 -0.003161749 0.004508124 -0.0033636852 -0.003000178 0.0039698156 0.000832621 -0.0019038239 -0.0022294815 0.0008459368 0.0004032962 6.368265e-05 -0.0013671169 -0.0047188546 0.00070011144 0.0006578444 -0.001404263 0.004726451 -0.0045411014 -0.0014823329 -0.00035868082 0.0025759307 -0.0013204484 0.0024656511 0.0013382866 -0.0004740625 0.0021273808 0.0020207767 -0.004282076 -0.003054179 0.00088001776 -0.004936941 -0.00018629736 0.0018865822 -0.00058802275 -0.0025505594 -0.0025243354 0.00069993886 0.0019723577 -0.0047030677 -0.0042102532 -0.003601191 -0.00017634072 0.0012547143 -0.0048650107 -3.070518e-05 -0.003241926 0.0007556202 -0.0049818433 -0.0030160055 0.00039279967 -0.0022333467 0.003031028 0.0048564416 0.004473613 -0.0018486519 0.0038766633 -0.0038354835 -0.0008294432 0.004217641 0.004963536 -0.0033183808 -0.0015021163 0.002124444 0.00057457574 -0.0037696636 -0.0036165742 -0.003995719 0.0036890423 0.0028582711 -0.003025606 -0.0004004481 0.0010728888 -0.0010950784 -0.00435707 0.0019055972 0.004414867 -0.0038310343 -0.0031264478 -0.0039000087 0.0038928385 0.0015338217
hvdm 0.00056710385 0.00048563816 -0.0022940102 -0.004721589 -0.004308958 0.004319741 0.0022834844 0.0008994508 -0.0029168776 -0.0015737159 0.0029836874 0.003381424 -0.0012210258 0.0037847587 0.0030077593 0.0036597198 0.0034258133 0.0050145946 0.0009685095 -0.0032690745 -0.003231108 -5.8016572e-05 0.0034078655 -0.0041185934 0.0024007352 -0.0006023644 -0.004640793 -0.004594522 -0.0019734367 0.0010173307 -0.0006169684 -0.00012751578 0.0023687035 -0.0039706375 -0.00043379268 0.0032292204 0.0024678337 0.004304777 0.0012724847 0.0018786548 -3.720337e-05 0.0040033893 0.0025816965 0.0033149577 0.0040871226 0.0002616959 -0.0049529583 -0.0021822057 0.00050958805 -0.0015054598 -0.0044432455 -0.0020544413 0.003903423 -0.0035306483 -0.0022234542 -0.0047722496 0.0006090898 -0.001483952 0.004272413 -0.0033419905 0.0021462417 -0.0019010741 0.0048200074 -0.00375661 -0.0033142897 -0.001133629 -0.0042277467 -0.0019463978 -0.00057261414 0.0019897309 0.004639752 0.00147245 -0.0012939976 0.0005885854 3.7733524e-05 -0.0016797758 0.00018474457 -0.0034562065 -0.00359648 -0.0006660637 -0.00423148 0.003177147 0.0047290795 -0.00421092 0.0027667056 0.0031717196 -0.0038946043 -0.0038929048 -0.00064622285 0.0032310023 0.0048794677 0.0040444173 -0.0015881466 0.0021056707 0.0003575853 -0.0037220877 -0.0014154463 0.004397454 -0.0040097297 0.002700093
topic 0.00019695521 -0.0035353226 -0.0042893286 0.0013905934 0.0047228513 0.0045038518 0.0026323127 -0.0043804203 0.0013478253 -0.00095481746 -0.0026644834 -0.004929685 0.0025351709 -0.004080318 -0.00032252216 0.004810741 -0.0024031876 0.0049089855 0.0047392403 -0.0023635246 -0.0030374879 0.003312013 0.00214792 -0.0034614247 0.00023129719 6.7841866e-05 -0.0038843262 0.0028279733 0.00020864441 0.0024274476 0.00271896 0.0019463855 -0.0009218773 -0.0029570875 -3.6896832e-05 -0.0016410217 0.0018944382 -0.0027792098 -0.0032327229 0.0037716299 0.0039623585 0.0029453316 0.00039283113 -0.0037561841 -0.004268323 -0.003885154 -0.00033315775 -0.0032193384 0.0003626272 0.003155534 -0.0013948937 0.0011415062 -0.004187456 0.003630526 0.0043067257 0.0039106235 0.0036524383 0.0037573318 0.0017561908 0.0027153504 -0.004199425 0.0019148702 0.0003294076 -0.0013399877 0.0015479864 -0.0045065563 0.00010057382 0.00043316456 -0.0031008525 -0.0003104776 -2.8680619e-05 -0.0036370568 0.0022943888 0.0038610995 0.0006609064 -0.0012646172 -0.0039693783 -0.004089342 0.0042192787 -0.0011076992 0.0008596343 0.0037371179 0.00011305257 0.0036753556 -0.0015870532 0.0035327643 -0.0016888945 0.001409452 0.0020736638 -0.000594416 -0.0009752496 0.0004300832 -0.0034162558 0.0027633351 0.0029362014 0.004694269 0.0023910883 0.0018209858 0.0031191742 -0.0029183084
fruit 0.0009630533 -0.0034686683 0.0036635888 0.0047429134 0.004827204 -0.0014257688 -0.003109018 0.0026437151 0.0038598827 -0.0005300836 -0.0044644345 -0.0010953945 -0.0015913288 0.0032132943 -0.0007773981 -0.0022923073 0.0011592937 0.0046204473 0.004627878 7.63176e-06 0.0024122167 0.00090279744 -0.0005192837 0.0001674395 0.0012959065 -0.00027798428 0.00059103855 0.0010347875 0.0020887644 0.00086587167 -0.0013850484 -0.00204875 -0.004411368 -0.0024296988 -0.004087597 0.001645748 -0.0030959493 0.0035598017 -0.0021972272 0.0015277672 0.00039487705 -0.0037636647 0.0021802026 -0.0046150107 -0.0002531225 0.0032043518 -0.003836009 0.0013364549 0.0025928963 -0.0031842578 -0.0012666935 0.0012051053 0.00326692 0.00446106 0.004571859 0.004465036 0.0014633022 -0.0010991901 0.0050008306 -0.00011170295 0.0018617349 0.0048735263 0.00027941572 -0.0014791687 -0.0022138003 0.0042126714 7.4257456e-05 0.0010577289 0.0035041654 -0.002636729 -2.71821e-05 0.004245806 0.00072466076 0.0043461304 -0.0035810317 -0.0008494419 -0.0048164204 0.00030676305 0.0005098402 0.0038409147 -0.0021367152 -0.00048219174 -0.0032572797 -0.0028876194 -0.0046083564 -0.00040918664 0.0032538138 -0.001388507 0.0014324229 0.0029044184 0.0039821225 0.00227627 0.002286715 -0.0031686178 0.0014502634 0.0034426157 -0.002746906 -0.0003381334 0.0029089146 -0.0027631838
roc 0.0034877968 0.0022648408 0.0044782097 -0.0027294143 -0.00068174617 0.0010764488 -0.0021348435 0.0022047372 0.0025337723 0.00028313382 0.0018751586 0.0020894313 0.0012650032 -0.0007099826 -4.7419658e-06 -0.004208497 0.0024322951 0.0012450111 0.0024215656 -0.004733149 -0.0042600874 -0.0029348137 -0.0038000732 -0.0012394091 -0.0036241442 0.00086987525 -1.39435515e-05 -0.0009207696 -0.003730879 0.0030832377 -0.0023749575 0.0006723081 0.005005412 -0.0015730981 0.0040062657 0.004548605 -0.004132092 0.0035400658 0.0010176672 0.0011525024 0.0006583253 0.0016151067 0.0033550423 0.00014479086 -0.0014497457 0.0020964039 -0.0004944424 0.0006256694 -0.0024140498 -0.0012756186 -0.00081838993 -0.00020617576 -0.0049105203 0.003439074 -0.002500778 0.0005606406 0.0048625325 0.0015754747 0.0035255598 -0.0037671952 0.000981418 0.00038448896 0.004257229 0.0024835141 0.00011350657 -0.0034031335 -0.003820696 0.0017126398 -0.003049027 0.0022758662 -0.0045576366 0.0018805054 0.001040473 -0.0035741685 0.002610028 -0.0030130371 -0.0033262242 -0.0023593097 0.00079408445 0.0025454143 0.0028871817 -0.0024184561 -0.0014739492 -0.00348789 0.0006978031 0.0036026046 0.003919086 -0.0012285775 0.00397319 -0.0002365054 -0.0011987287 -0.0014495485 -0.0005685268 0.001767886 0.004634661 -0.00074428756 -0.0026878153 0.0011982761 -0.0030177142 0.004134182
generalized 0.00075728353 -0.00036792492 0.003690694 -0.0016786333 0.0024288597 0.0049517197 0.00076324283 -0.0043317718 -0.00020702106 -0.00087348756 0.0046042427 -0.00017351899 1.0601679e-05 -0.0036697735 0.0040322253 0.00024533214 -0.0035931722 -0.002179249 0.0020646674 0.0013550743 -0.0014862362 -0.0025057031 -0.0010063236 0.0026117784 0.0023093657 0.0032727236 0.00093949604 -0.0011032855 0.0013164175 -0.0022693088 -0.0009534862 0.004117919 -0.003839539 -0.0024204745 0.0016027319 -0.0018098722 -0.0043587475 0.004612353 0.0030844314 -0.003211954 0.0025587478 0.0023638043 -0.0013767083 0.0005551477 -0.0023522465 0.0036466932 0.002374429 -0.0041985475 0.0006920575 -0.0029720352 0.0014783301 -0.0018716424 -0.00025934484 -0.0028015238 0.0019175317 -0.0033518346 -0.002153263 -0.0047756745 -0.0025874567 0.00250055 -0.0041651954 0.0031990001 0.0030929504 0.0015197265 -0.0013642514 -0.0009159717 0.0043039573 0.002071698 0.004325687 0.0022149216 0.00018478159 0.0008936625 0.0011553151 0.001032261 0.001185274 0.0039027405 -0.0028730752 -0.0033461533 -0.003625402 0.0025421185 0.0030334177 -8.255532e-06 -0.002181669 -0.0030627141 0.00476653 0.0032103874 0.003947817 0.00092010223 0.0009373653 -0.0019907756 0.0042786645 -0.00022758562 0.0023092036 0.00023726367 -0.0024877451 0.0027531274 -0.0018291669 0.0025415213 0.004888171 0.0033906056
broadcast -0.0021501533 0.0040478366 0.003414965 -0.002789251 -0.0032539023 -0.0010339841 -0.0032356856 -0.0012416836 0.0025675348 -0.002143245 0.0018601055 0.0016627795 0.0029905858 -0.003267905 0.0007250087 -0.001642766 -0.0022319152 -0.003210591 0.0013394365 -0.002397648 -0.00029017063 -5.239706e-05 -0.0030523338 -0.0036917466 0.003821023 -0.002891182 0.0047089616 0.0019944946 0.0013718678 0.0015503684 -0.0010799187 0.0005778213 -0.0023252566 -0.0006303419 0.004255154 -0.0030576277 0.004399069 -0.0005425558 -0.0034100616 -2.3697005e-05 -0.00085596537 -0.004372227 0.002679416 0.002491693 -0.0014635834 0.003313288 0.001233579 -0.0038327072 0.004471348 -0.0023244906 -0.0018561046 0.00038868777 -0.0047045536 -0.0018157278 0.0030995212 0.0030749585 -0.001292184 0.0033615967 0.0019151564 -0.0028628202 0.0049781455 -0.004840634 0.0030395593 -0.0005107201 -0.0010693838 -0.0034976671 0.00053849845 0.004032055 -0.0034802323 0.0024377636 -0.0016374169 0.0049707917 0.0037342485 -0.00033554484 -0.004552796 -0.00012249539 0.0018972623 0.0006279916 0.002852145 -0.0012842066 -0.004494615 0.0017019616 0.0031505052 -0.0015549134 0.0023100877 0.0014392725 0.0006180293 -0.0048756446 0.00096827256 0.002414027 0.00076529186 0.0026092017 0.0030278477 0.00022929389 0.0028056002 -0.001099576 0.0046776715 0.0049284417 0.003480183 -5.8494938e-05
visualization -0.00079261226 0.0008715999 -0.0025719875 -0.0010910699 0.002349913 -0.0030685952 -0.0021425192 -0.003380065 -0.0041441093 -0.002462297 -0.0044620046 0.0017157412 -0.00021429782 -0.0047622398 -0.000875296 -0.00034003876 0.0013446389 0.00089025 0.0032500918 0.0019509362 0.0030995463 -0.0033452068 -0.002044308 0.0012197709 -0.004541142 0.0028222902 0.0047421944 -0.0027822494 -0.0032885002 0.0036829307 0.0011657899 0.003845063 0.0020119862 0.00308783 -0.0038090406 0.0039229416 0.0034928955 -0.0001523687 -0.0022188495 0.004909455 -0.0047284705 -0.0023479601 0.002601513 0.0027787522 -0.00016316195 -0.00203571 0.0016190502 -0.003005988 0.00071940804 0.0029471363 0.0030792847 -0.003363889 0.0016912506 -0.0018163853 0.002348161 0.0038999445 0.004151616 -0.001965111 -0.0047851256 0.0032037229 0.004828994 -0.004307498 -0.0024516243 -0.003074303 -0.0019100229 -0.0012967447 -0.004829757 -0.0038105985 -0.0038478232 -0.0049779294 0.00060223415 -0.0017743321 -5.914175e-07 -0.0020698307 -0.0017023678 0.0020837018 0.0040040235 0.0018670333 -0.00024288335 -0.0022233902 0.0015684784 -0.0016700476 0.0023893043 -0.0020023014 -0.00439935 0.0026253292 -0.0038345235 0.0013560236 0.00061482925 -0.004714861 0.0039922083 0.0047359057 -0.00055538595 0.0005261451 0.0008889863 -0.00015589174 -0.0015865942 -0.0007173194 -0.0034628832 -0.0037205992
descriptive 0.004440621 0.0040266225 0.0016464347 -0.001287881 0.0046769283 -0.0026988913 -0.0014814844 -0.001533314 -0.002888344 0.00065525045 -0.004362025 -0.0012494237 -0.00010279027 -0.001687155 -0.0018397293 -0.0035254506 0.0012906892 0.0013108817 -0.0030137538 -0.0034102793 -0.0023653624 -0.004750868 -0.0012371638 -0.004351254 -0.0027924934 -0.0026427463 -0.00069478917 0.0046518235 -0.00070196675 0.0023126733 -0.0024651724 0.0023275467 0.004999048 -0.004190687 0.0048651565 0.0006176086 0.0040883333 -0.004725709 -0.003386827 0.0032317399 -0.0011168423 -0.00015541511 -0.0037835147 -0.0008922235 -0.0026698455 -0.0018445374 0.0016663097 -0.0026946736 0.0029964133 -0.0019565164 -0.0011201301 -0.0040164054 0.0012131671 -0.0021830804 -0.0020283354 0.0017278973 -0.0027016897 -0.0022086226 -0.002839676 0.00072553323 0.0035123455 -0.004542523 0.002527952 -0.0036309832 -0.00026602612 0.0040213047 0.0028481989 -0.00015230846 0.0031963657 0.0020544948 -0.0029110678 0.0006910033 -0.0026840246 -0.002853782 0.00018206646 0.0017018012 -0.0033811044 -0.0019058051 -0.0044503454 0.0007021495 0.004168015 -0.0014201971 0.0019230177 0.0046203337 0.0008880124 -0.0031145418 0.004188787 0.0003717991 -0.0036308346 -0.004774659 0.0039683557 -0.0029885983 -0.0044172104 0.0021381048 0.0047385474 -0.0023600864 -0.0024239402 -0.00023053448 0.0010085374 -0.0042509213
parameters -0.0030842803 3.7346257e-05 -0.0008517264 -0.0015619334 -0.00086934125 0.0006018428 0.0031184182 0.0018755123 -0.002946603 0.0034410558 0.00015642871 0.0006368125 -0.0029253312 -0.0038091566 -0.004078313 0.0022135677 0.0013460742 0.0026719428 0.0009415529 0.0024652875 -0.0024375075 -0.0018632412 0.00035450846 0.0007332434 -7.131218e-05 0.003584882 0.0019436877 0.003988434 0.0013528428 0.002513879 0.0006732631 -0.0016044562 0.0022447414 0.0027681652 -0.0029651627 -0.00028746345 0.0008206166 0.0033825082 -0.0039586127 0.0022565324 -0.0022715407 -0.0030708548 -0.0016740351 0.0028093494 -0.00034217574 -0.004611885 0.00026796226 0.00055253087 0.0033024964 -0.001443999 -0.0044366475 -0.0003167417 0.0037894591 -0.0044220234 0.0012415274 -0.00035141854 -0.0014912616 -0.00036198922 0.0011544536 -0.0040764385 -0.004106784 -0.0031371706 0.0013295853 -0.0041728145 -0.0023971864 -0.0043096696 0.0030104138 0.0049914685 -0.0014209748 0.004710175 -0.0030635449 -0.0042817555 0.0025604672 0.0030678583 0.00198008 -0.0003060156 -0.003487388 0.0028725597 0.004774607 -0.0025517456 0.0032168045 -0.0036700566 -0.0037543997 -0.0012846078 -0.00050418056 -0.004470262 0.003323721 -0.003186598 -0.0023181553 0.0048114224 0.0010221361 0.0012754782 -0.0030266612 -0.002624753 0.000113213195 -0.00031878878 -0.0031624155 -0.0004909034 0.0036572202 -0.0017931717
kernel 0.0019764167 -0.0025492455 -0.0034952683 0.0033996573 -0.0027503371 -0.0042217136 -0.0016841659 -0.0037937372 0.0028248283 0.0007372653 0.0005957947 -0.0015628167 -0.004780254 0.0008982164 0.0048268004 -0.004730507 0.0011457949 -0.004001981 -0.0040440396 -0.0019436693 -0.004952813 -0.0023566762 -0.0031617007 -0.0023729983 0.0012998335 0.0026846416 0.00081028155 0.0019287565 0.0043362984 0.0014906429 -0.0040838616 -0.0013122837 -0.0047554476 -0.0012736506 0.003488662 -0.0028314732 0.0022583643 0.0029541033 0.0012175188 -0.002234805 5.9070902e-05 0.00082984037 -0.0021692284 0.0038848626 -6.2933366e-05 -9.844197e-05 -0.0028987788 0.001180164 -0.002568658 0.002464238 -0.00056114 0.0015143175 -0.0023951877 5.0490264e-05 -0.0018946116 -0.0032488233 0.0027667526 -0.0008387597 0.00096344313 -0.002545902 0.0011965631 0.0045676553 -0.00063367066 -5.0348004e-05 -0.0007253207 -0.004402917 -0.0005724287 0.004455695 0.0027115226 0.0011559445 0.00390273 0.0010466577 -0.0025863368 -0.0023246747 -0.0011495142 0.003457358 0.0007693661 -0.0011647898 0.0038818487 0.003397245 0.0013561227 0.0033684769 -4.563153e-05 -0.0031341324 -0.0006794801 -0.0007187003 0.0028647122 -0.002344611 0.00030735903 -0.00482576 -0.00095101236 -0.0030771114 -0.003473386 -0.0009933136 0.0003234158 0.0035074293 -0.0014477804 0.00093158334 0.003346022 -0.0031270296
substring 0.0049444586 -0.0036991232 -0.004442502 0.0016864284 -0.004036138 0.0027007682 -0.002488051 0.0030028224 -0.00045276314 -0.004284015 0.0024180615 0.0013412706 -0.00012147072 -1.5070793e-06 0.0011505617 -0.0043773293 0.004358899 -2.9110004e-05 -0.0022746094 0.0016816525 0.001724525 0.003621922 -0.004839857 0.0005208412 -0.00060672965 0.0036964037 0.0040147672 0.004070334 -0.0009016219 0.002467349 0.0005881174 0.0049094483 0.0005356978 0.0013818883 0.0022770162 -0.004336125 -0.004287034 -0.0042716786 -2.1689772e-05 -0.0034719189 -0.004314517 0.0019202087 0.003274468 0.0003348112 0.0028722144 -0.002559893 0.0023190493 -0.0040081656 0.0033154103 -0.003581387 -0.0013582751 -0.0040395707 0.0013525081 0.0021575415 0.0016914257 0.0037683272 -0.00449149 -0.0034258727 -0.0018038995 -0.0034821047 7.9257414e-05 -0.0001721643 -0.00075430586 0.004563177 0.0011274451 -0.0016172095 0.003268682 0.004551383 0.0024057697 0.00029167673 0.002109427 0.0036961897 0.0007734734 0.0049436586 0.0011160764 -0.003727814 0.001002509 -0.0011996095 -0.00474414 0.0010418118 0.0023025149 0.0013141491 0.0031488496 -0.0047058463 0.0035063615 0.0030164556 -0.0047799055 -0.0037177142 -0.0048392774 -0.0017683432 0.0027522864 -0.0049857413 -0.0035401317 -0.0032106307 0.0013829257 0.0036814655 -0.0019574903 -0.0039101103 0.001915168 0.0020533402
nearest 0.0020534024 0.00057794014 0.004465445 0.0010217729 -0.0017136885 0.0049072728 -0.00030157578 0.00205431 0.0024017522 -0.001296516 -0.0040373025 0.0023898664 0.0021013897 -0.00034640703 -0.003869666 0.0015932585 -0.002560197 -0.003652355 -0.0044295257 0.0026302713 -0.0029507417 -0.0014340276 -0.00062616647 0.0015535217 0.0021062011 -0.0040845913 0.0029988294 -0.00036910686 0.0010720226 -0.0035714663 0.004860356 0.00021850932 -0.0018548836 0.00070630724 0.0036674386 0.0011697129 -0.002742328 -0.004016579 -0.0023812447 0.0025764501 -0.0017194521 -0.004180807 -0.00033994223 -0.0039508534 0.0025041713 0.0026906598 -0.0041349535 -0.004103719 -0.004434107 0.00029984015 0.003092637 -0.0048680548 -0.0036199165 0.0013155756 -0.0042385776 -0.0033219566 0.00259953 0.0013963183 -0.0045832447 0.002518383 0.004250346 0.0022659483 -0.0049252757 -0.0044281394 0.002505276 0.004700209 0.0042844876 -0.0022253708 0.000611614 0.0020868273 -0.00090864423 0.0029944947 0.0003375321 0.0007861507 -0.00052870315 -0.0007468257 0.0046036243 -0.001804416 0.0013818304 0.003870767 -0.0022641039 -0.004049053 0.0013549157 -0.001678328 -0.00031588745 0.0032340786 -0.0028223142 0.003027959 0.0019078742 0.0010866625 0.002247786 -0.0031980246 -0.00026871174 -0.003410023 0.0022968312 0.0020391128 0.0016988905 0.0020721988 -1.5823147e-05 -0.003090925
grammars 0.0049599297 -0.0011369186 -0.0035894003 0.003544803 -7.402356e-05 0.0025412915 0.0005924154 0.0027644741 0.00047511625 -0.004414146 -0.0042524454 0.004289977 0.0017375248 -0.0010524316 0.0048277136 -0.004229127 0.00018058489 0.0009895291 0.00015197425 0.0005513024 0.00042568793 -0.0048839296 -0.00057728455 -0.0040703067 -0.00066605955 0.0020034467 0.0020404656 0.002133147 -0.0020092104 -0.002906732 0.0014196481 -0.0030475212 0.0015606306 0.0024522808 -0.0032702805 -0.004194652 -0.0032602004 -0.004161756 -0.00012473542 0.0039262935 -0.003358693 -0.0030133214 0.0043673185 0.0016236815 0.0026138772 0.001962331 0.00056713726 -0.004342101 0.00016893886 -0.003630046 0.004885994 0.004955177 0.004621811 0.004324223 0.001275049 -0.0041835667 0.00369708 0.0018466032 0.0038190475 -0.0030416257 0.0038036539 0.0005606816 0.00207726 0.0041735247 0.0021621059 -0.0012421055 0.00058239046 -0.0049141143 0.0008510002 -0.00039041336 -0.0026222446 0.0012751133 0.00011078266 0.0012423417 0.003207922 -0.0012269123 0.004556957 0.0019941463 -0.00025174365 -0.0035299447 -0.0023263833 -0.0048919464 0.00023837523 0.00011777641 0.001129562 0.0009775567 0.001666612 0.004511169 -0.0020070516 -0.00075745845 -0.0036803551 -0.0036920698 -0.0014414595 0.0019218293 -0.002395421 0.00086987327 0.002874145 -0.0012734772 -0.0011379449 -0.0026714972
weights -0.0005664536 0.00068589725 -0.0013020169 0.0016274903 0.0026650417 0.0014963058 -0.00065472827 0.001394626 0.0028116442 0.002526125 -0.00014875537 -0.0031984264 0.0026219818 -0.0042414865 0.002674125 -0.0048221396 0.0029105237 0.0031281973 -0.002683621 0.0023462088 0.000789101 -0.0043727546 0.0009982138 -0.003725449 0.0022339977 0.002144033 0.0023110851 0.0012157441 0.0026164455 0.001440747 0.0010253376 -0.0014903122 0.0038743091 -0.0027837926 0.00063548674 9.9851546e-05 -0.000895385 0.0047065145 -0.00074482535 0.0033725272 0.004347485 0.0026848556 0.002338682 -0.0031316944 0.0037681218 0.0034200512 0.00093156676 -0.00058580964 0.0029340095 -0.0023957542 -0.0017462713 -0.0032968675 -0.00035681084 0.0024970353 0.0036505417 -0.0023422537 0.0036952866 0.0034607707 -0.0011335039 0.0044576307 0.0020217183 0.0022697195 0.0046499795 -0.0019550107 0.0037764928 0.0043890937 -0.002634882 -0.0049435846 -0.0017626326 0.0003893056 -0.0037902747 -0.0008390511 0.0024646092 -0.0030625924 -0.00434943 -0.0006876995 -0.0005904593 0.00050362956 0.004177208 -0.0013434277 0.0007177056 0.0048895334 0.0009794906 0.002855165 -0.0004462228 0.0005594598 0.0037465377 0.0028021487 -0.004981925 0.0041598394 0.0016671158 -0.0032339753 0.0040329695 0.0037534628 9.303881e-05 -0.0012414423 0.0036062 0.0039931396 0.002532537 0.0045346557
euclidean -0.004993029 0.00086965435 -0.0017321185 -0.0018446296 -0.00034481194 0.002985563 0.0038873337 0.002011555 -0.00011007944 0.0020102945 -0.0035589326 0.00049113366 -0.002132257 0.002123892 -0.0034424837 0.0049599465 -0.0035174475 -0.002487033 0.0002920941 -0.0024380928 -0.002542191 -0.0021082703 -0.0026313257 -0.004612723 0.0007836676 0.0009978933 -0.004755942 0.0025086673 -0.0010362741 0.0042706686 -0.0024006201 0.0034248205 0.0042250725 -0.00013052516 0.0007405915 0.0031167916 0.0026117375 0.004546747 -0.0022728837 -0.00079161645 0.004823487 0.0036966396 -0.0020569589 -0.0007128377 0.0035087501 -0.004929129 0.00014503024 -0.0034463045 0.0032587699 0.0023056336 0.0027450577 0.0019569069 -0.0039206776 -0.0019056342 -0.0013210883 0.001522303 0.0024714759 -0.0029418475 -0.0040598437 -0.004760551 -0.004751299 0.0015833203 -0.0021186327 -2.8722685e-05 0.004754314 -0.0027406404 0.004522589 -0.003907322 0.0037538582 0.0011272714 -0.00014177193 -0.00278479 -0.003062487 0.0015348669 0.0010100638 0.0018998394 -0.0029752904 -0.0036298132 0.003555616 -0.0027028078 0.0049899286 0.0015296605 -0.0026500055 0.004340365 -0.0025037357 -0.00093660987 -0.004206186 -0.004909559 0.0005964221 0.0019830733 0.0011944456 -0.00482768 0.0037420916 0.004396704 -0.0013518225 -0.0034736178 0.0027898846 -0.004713018 0.0045579113 -0.0043813926
lexicograph -0.0038749939 -0.0021845875 4.2658507e-05 0.004667802 -0.0026867779 0.0019863343 0.0013919569 -0.004148535 -0.0004970165 -0.0032523838 0.003950357 -0.0010157665 0.0018580662 -0.0026125635 0.0032144575 0.0010648577 -0.0016769334 -0.0036988459 -0.002763015 0.0022673586 0.004345125 -0.0033422415 0.0029561725 -0.00024548476 0.0024790142 0.0011016389 -0.00078612595 -0.002211433 -0.00015675186 -0.0030349381 1.2094684e-05 -0.0010713489 0.004600617 -0.002137058 0.00076763576 -0.0007280369 0.0023703412 0.0023640427 0.0039058125 0.0005925464 -0.002567072 -0.0016163219 -0.0014718387 0.004105459 0.004940475 0.0021389998 -0.0030051004 -0.003159319 0.0028126144 0.0025836322 0.00056567084 -0.0027336045 -0.0024306232 -0.0011664571 0.00077429373 -0.0018171407 0.00061169424 -0.0038617107 -0.00073045446 0.0020246296 -0.0037982725 -0.0012871908 0.0011245094 0.00067239767 0.0035261693 -0.002548441 0.004060764 0.002890575 0.0008825443 0.0025374012 -0.002104297 -0.0015681244 0.0017010095 -0.0010522061 -0.0029546772 -0.0021786662 0.0011582496 0.0032949564 -0.0048127566 0.0046723727 -0.0019714192 -0.0013603903 0.0048186807 -0.0047278553 -0.0015410186 -0.00025023305 0.000453707 0.0010995944 -0.0022854933 -0.0004903118 0.002223282 0.0035988155 0.0011950542 0.0014054963 -0.0009543539 -0.0008800414 -0.0025994952 0.0036382128 -0.002456536 0.0032046651
decomposition 0.00040623287 -0.0026860577 0.0001001802 -0.003225918 -0.004063346 0.0012366336 0.0020832177 0.0030473159 -0.0010103793 0.00043815273 -0.004500755 0.0026917919 0.0029979902 -0.0034209555 0.0035719292 0.0034496626 0.0006036927 -0.002060851 -0.000538847 -0.0016063403 0.0014611131 -0.0017172272 -0.001321195 -0.003155766 0.0012801623 0.0035741269 -0.0033404382 -0.002016159 0.0009728215 2.9373177e-05 0.0028981 0.0026198297 -0.0017377473 -0.0020356788 0.0031674479 0.00069322705 -0.0017894238 0.00017836779 0.0038755303 0.001021351 0.0032743379 -0.00045916627 0.0015446474 -0.0022196816 0.0005171279 -0.0035103797 0.0014072382 0.003226114 -0.002685334 -0.0008846358 0.0022591094 0.0036752624 0.004389782 -0.004475066 0.0021424615 0.004165058 -0.0019472955 -0.0023154626 0.0018034151 -0.0039517255 0.0031486019 -0.00455949 -0.0004720141 -0.0016932619 -0.003978011 -9.109057e-05 -0.0022211852 0.00040952727 0.00152802 0.0016426119 0.0024414677 -0.00029883804 0.00024048053 0.0005086095 0.0046724933 0.0027820957 -0.003048759 -0.002059982 0.00020804643 0.003946749 0.0027247476 0.0020808997 -0.0046368185 0.0004613383 0.004588223 0.004244051 -0.0020868736 -0.0039001666 -0.0018304602 -0.0018690955 0.003070311 -0.0050013796 0.004718036 -0.0034153718 0.00039035347 0.0003224957 0.0013218833 0.0032191314 -0.004893751 0.0019904776
distributed -0.00061659975 0.0014583623 0.00014288838 0.0018832964 -0.0020856047 -0.002581631 -0.00477262 0.004980269 0.0015309099 -0.0039540622 -0.0025817365 0.0016691618 -0.0042952136 -0.0028311105 -0.0005154868 0.002758629 0.0005307486 0.0013872434 0.0010861184 0.004113455 -0.001513018 -0.0018793122 -0.0015947974 -0.002970619 -0.0014476414 -0.0027627507 0.0038928958 0.0036356768 0.0034844906 -0.0004835619 -0.0010256007 0.004548714 -0.0036054568 0.0027454097 -0.0026720958 -0.0023902997 -0.001003907 -0.00076284225 0.0017562286 0.0007213046 -0.0042852745 -0.0029332365 0.0036846474 0.0015378824 0.0013412399 -0.004802687 0.0014419175 0.004368035 -0.0037400029 -0.0035863894 0.0008604501 0.0045502894 0.0023734542 -0.0038168011 0.00082560244 0.0017500112 -0.0016587285 -0.0037056056 0.004976485 0.001330279 0.0018748153 0.0016498017 0.0014176903 -0.0018162042 -0.0014154539 0.0019293736 0.0033656135 -0.0026457997 0.0021430387 0.00015519155 0.0039470503 -0.0013966747 -0.000938671 0.00058970076 0.0009129472 0.0013998551 0.004265173 0.0045650043 0.0047781165 0.004839835 0.0048445947 -0.00020698723 -0.0036543154 0.0038798973 0.0039769253 0.0007206083 0.0005221286 0.0039253575 -0.002566573 -0.003741056 0.003456303 -0.0037502854 -0.0012740497 -0.0024143974 0.004543439 0.0026161436 0.0028328004 0.0020239481 0.0011665471 -0.00400617
inheritence -0.004936253 -0.00034123918 0.0013845705 0.0032162855 -0.0026568822 0.0015635291 0.0027816226 -0.0037639437 -0.0044547953 0.0023788428 0.00040013486 -0.0026044613 -0.0017402385 0.0004184965 -0.00491941 0.0048170406 0.00192172 0.00066732406 0.0037690226 -0.001446635 0.0016555667 0.0030593283 0.003433169 0.0025253661 -0.0029409162 -0.003954428 0.00020463079 -0.0044723344 0.0010846781 0.0048382636 -0.0012388879 0.0035094789 -0.0023729962 0.0027053028 -0.00088327023 -0.002478385 -0.00043189572 -0.00084848545 0.0049828873 -0.0028870176 0.0032448343 -0.004267559 -0.0018415757 -0.00430508 -0.0012515383 -0.004090256 0.0045087733 0.0025463065 0.00392911 0.0017728579 0.004217868 0.004576437 0.0027934124 0.0013278099 0.0012442463 0.004880548 -0.001565587 0.0005196599 0.002295814 -0.0012684562 -0.0028584616 -0.003076036 -0.0005803425 0.0023047777 -0.00095203595 -0.0038607384 -0.0012529448 -0.0032276558 0.001702397 -0.0021026419 -0.004925792 0.0048425836 -0.002329373 0.0012949258 -0.00405168 -0.0014376574 0.003718897 0.0014317014 -0.0017326457 0.0040832744 0.0030276992 -0.0013156008 -0.0012999729 0.002483939 -0.00035073483 -0.0016317838 -0.0032980442 -0.00039046002 0.0007282947 -0.004578812 -0.0040384806 0.0004804848 -0.0008658831 0.004305221 -0.0030951484 0.00038693356 -0.0017496521 0.0028448491 -0.0022505054 -0.0024332313
inheritance -0.0030400406 -0.003837971 0.0019833464 0.003829847 -0.0047714543 0.00258596 -0.0018951116 -0.0048178295 -0.0011848649 0.00413951 0.0007648709 3.0130883e-05 -0.003168674 -0.004853848 0.0017678028 -0.0003999869 0.0035402938 0.002262856 -0.00060883217 0.00046540954 -0.0033275157 0.001473594 -0.0023465857 0.0008590679 -0.004993507 -0.0012194072 -0.0013582866 -0.0036581124 0.0031900676 -0.0038086227 -0.0026902827 -0.0042482894 -0.0013295206 0.0028545372 -0.004439025 0.0010904428 0.00050297123 -0.0018150896 0.00028865677 -0.004676124 -0.0046643303 0.0013351821 -0.0021517787 0.0007967082 0.0008657729 -0.0021493242 -0.00020300467 0.0033684105 0.0027311698 -0.0045194468 -0.0018007777 0.00356281 0.0018215253 -0.00063460943 -0.00041498727 0.00046640274 -0.0026495352 0.003612578 0.002317706 -0.00485992 -0.0003509572 -0.002173352 0.0040023467 0.0011544812 -0.00041009387 0.0014418669 -0.0031375287 -0.0021906393 -0.0043092514 -0.004807144 0.0023757194 0.0023542906 -0.0023110912 -0.004351099 0.0024245286 0.0019325443 -0.0029367022 0.0009503438 0.0030950152 0.00061905145 -0.0022223392 -0.0035936548 0.0027197166 0.0036801093 -0.0020717832 -0.0040565906 0.0030024478 -0.0019451159 0.0018393344 0.0006291703 0.00030574013 -0.0009508518 0.00038105145 0.0034456167 -0.0031198722 -0.0042330865 -0.0014490723 0.0024849966 -0.0020988674 -0.0015453019
context 0.0018807774 -0.0048781163 -0.004998573 0.00029336644 -0.0015641038 0.0047898637 0.0028857708 -0.0033064103 0.0023459925 -0.0025527116 0.0023768924 -0.0018426913 0.004816391 -0.003576158 0.0005579779 -0.004292756 0.0040009962 0.004550587 0.0034470502 -0.002142198 0.004404798 0.004504703 0.0022824465 0.0013840392 0.0030726234 0.0010227504 0.0009384082 0.0033090883 -0.0008891537 0.00038705455 -0.0041772607 -0.0017847752 -0.0046775835 0.00052849576 4.5149452e-05 -0.0024850776 -0.002562463 -0.0036852967 -0.00017726682 -1.928397e-05 -0.003685351 -0.0034004159 0.004039355 0.0028110892 -0.0025439903 -0.0032503458 -0.0018383327 0.0046305936 2.1437845e-05 0.0008790317 -0.0019903567 -0.00042635598 0.00041709293 -0.004155115 0.004643986 0.00026375978 -0.0026536065 0.0025475663 -0.0033448245 -0.00014802717 0.0021501712 -0.0024391213 0.0026845615 -0.00089002703 -0.00271877 -0.0032059257 -0.002388587 0.004315064 0.0035467069 0.004579882 0.00048562698 -0.0033146862 0.004979662 -0.0003215906 -0.0021679476 -0.003522329 -0.0013857421 0.003682963 0.0046857935 -0.0036978577 0.0047562523 0.0048089065 -0.001850021 -0.0041189347 0.0045256345 -0.0043683066 0.004001873 -0.0021021997 0.0031500524 -0.0040787067 0.0004144072 0.0012075447 -0.00056262227 0.00028421066 -0.0010245179 -0.00046244077 -0.00061946 0.00028864018 -0.0005600262 -0.0011408515
indexing 0.0038952525 -0.0046903575 -0.0032179218 -0.0035538063 -0.0033548863 -0.002238631 0.003195228 0.0048915823 0.0011654213 0.0006834488 -0.0043666093 0.0003867164 -0.0021669376 -0.0032202625 0.0027624478 -0.0037788015 -0.0017361144 -0.0018241119 0.0014623285 -0.00075714 0.0022538258 -0.0040058577 0.004448117 0.0039713006 0.0040738964 0.003907186 -0.0028763686 -0.00057282636 -0.0037427777 -0.0016739212 -0.0013187516 0.0029895382 -3.0201483e-05 0.0020631722 0.0039687464 -0.0012193841 0.0016857395 -0.002101577 0.0036904998 0.0017024246 0.0031911468 0.004149139 -0.0012925686 0.0011861166 -0.0046286415 0.0013312404 -0.0042952825 0.0031371135 -0.0037339912 -0.0023215583 0.0025292258 -0.003272573 -0.0034164002 -0.0016886429 -0.005010053 -0.003394382 0.0023093175 0.0022597774 0.004891477 -0.00067530054 -0.00494605 0.003197508 0.0010413096 -0.0026137873 -0.004846487 -0.004975936 0.0005587962 -0.0038808314 0.0018731293 0.0024523041 0.0022265404 -0.004469878 -0.0015659211 -0.0015633085 0.0035384297 0.0020000609 0.0014386543 -0.0008813787 -0.0027717885 0.0028401832 -0.004671204 -0.0012905006 -0.0010659369 -0.00032158446 -0.0030145238 0.004179369 0.0038826638 -0.002826323 -0.004518786 0.0024288348 0.004163976 -0.0016797578 0.0049354825 -0.0028581556 0.0020586217 0.003311792 0.0039827544 0.00023464418 0.0022329125 -0.0021695695
knowledge -0.0031446465 0.0038379037 0.0016442473 -0.0014627891 0.0034746113 0.0017558407 0.004158911 -0.0033453465 0.003411616 0.0035606783 0.0013218853 -0.0044124103 0.0032948994 -0.0005609832 -0.002722264 0.0008785426 0.0041566473 -5.9587193e-05 0.002747579 0.0040403935 0.0044306186 -0.0049194572 -5.412317e-05 -0.0006360043 0.00030899272 0.0009323826 -0.0004691217 -0.0016417134 0.0022273036 0.0005178163 -0.0008927057 -0.0008177491 0.0046763285 0.0001417332 -0.0032222304 -0.0010378164 -0.004603859 -0.0022141342 -0.00030932788 -0.0044290647 0.0043532327 -0.0035339207 -0.003669936 -0.0030771224 -0.002445678 0.002236427 0.00029353198 0.0038985813 -0.0011316424 0.0010891069 -0.0017058683 0.0005942649 -0.0024338071 0.004926252 -0.00487778 0.0033288798 7.4090276e-05 -0.0033837964 0.0034414944 -0.0022774579 0.0045207436 -0.0011415358 0.00068259035 0.0025956756 0.0013132701 -0.0037521701 0.0013443433 0.003613494 -0.0024136587 -0.0029812073 -0.0022871105 -0.0021361716 -0.004197701 0.003033149 -0.0006208972 -0.0007804141 0.0038042797 0.0001856605 0.00424349 0.002194994 -0.0032883855 -0.0037683507 0.003521384 -0.0022749607 -0.0036868968 0.0017185988 -0.00032111641 -0.0046254066 0.0028984735 -0.0015595776 -0.00018604388 -0.0036358703 0.0039807684 0.0025285007 0.00031771642 0.00043124452 -0.0015751432 -0.0036476268 0.0015321777 0.003605628
descriptions -0.0034301358 0.0031742929 0.00027552652 0.0028487924 0.00091545103 0.0025866409 -0.0019089379 -0.0031474603 -0.0030346308 -0.0031044127 0.001166953 -0.0023638166 -0.004507395 -0.004624557 -0.0013604141 -0.0038264538 0.0027843667 0.002953103 -0.0013699809 0.002957463 0.0014171416 -0.0035559195 7.226284e-05 0.002833691 0.0034231371 0.0011780035 0.0019388585 -0.0003345468 0.00093507546 0.004509737 -0.0010435522 0.00054898544 -0.0037513531 -0.004109278 -0.0022631688 0.00095275097 -0.0029782108 -0.002753234 -0.0045507797 -0.004988706 -0.004420081 0.0025553806 -0.0029070338 0.0043761 0.0035116347 -0.0011616967 -0.0027365317 -0.0032425998 0.0031279796 -0.0036724224 -0.0020166817 0.0020244578 0.0042421417 -0.0016423168 -0.004311686 0.0009453171 -0.0019722916 0.003168671 -0.0020114763 0.0013842806 -0.0009399154 -0.0033575937 -0.003462517 -0.004994216 0.004413193 -0.0032679816 -0.0029275029 -0.0040512066 0.0024526848 0.00081632106 0.0018456213 -0.00010186696 -0.0029556842 -0.002375413 0.0043442207 -0.0008271474 -0.00043576185 -0.0008686372 -0.0032067779 -0.002054805 0.00097291626 0.001811283 0.00045795698 -0.0037549266 -0.0025946763 -0.0026118855 -0.0049241045 -0.0031815819 -0.0028069173 0.0037295362 -0.0039219535 -0.0044067 0.0017838645 -0.0036401518 -0.004277988 0.0016934344 -0.00036568515 0.0034193874 -0.0010183293 0.002988818
protocol 0.002356526 0.0011331909 0.00067872455 -0.0047319196 -0.0001696015 0.0034625588 0.004182281 -0.0024749595 0.0009774545 -0.0027662702 0.002921474 0.0026856665 0.0025670251 -0.00015701502 -0.0034358862 -0.0007001938 0.0034398974 0.004626052 0.0035931452 -0.00042370215 -0.003898315 -0.0033196125 0.0011943126 0.0017252166 0.00023529964 -7.5167736e-05 -0.004405612 -0.0011161463 -0.0022881532 -0.00047769124 -0.0034972122 0.0011235886 -0.0017639365 -0.0040860116 0.0020335503 0.00080779154 -0.0044201817 -0.0007869775 1.933729e-05 -0.0022714136 -0.0011954866 0.0028632737 0.00036897493 0.0047182594 -0.0013064708 -0.0020283004 -0.004273019 0.0025301545 0.002587482 -0.0022130017 -0.003979828 0.00023439275 0.0037644447 -0.0010511236 1.4274957e-05 -0.00332686 0.0017616252 -0.0040820367 0.003683487 0.0018814075 0.0034599656 -0.0032847603 0.00082924275 0.0005020718 0.00019638585 0.0028278735 0.0015720151 -0.004268998 -0.004139626 -0.00028121233 0.0014006776 0.0017817632 0.0023056192 -0.003346006 -0.00500244 -0.0038964904 -0.003858521 0.0011305832 0.0035663536 0.00066938245 0.0049157147 -0.00012593075 0.0009893603 0.0043445583 0.00053860527 0.004715892 3.0686572e-06 -0.0019840004 0.0043761753 -0.0018187211 6.566764e-05 -0.0005086054 0.004517225 0.0032578127 0.0031642658 0.0028711068 -0.0021303298 0.0023969563 -0.001850048 0.004417443
complexity 0.0020059855 -0.0026772683 -0.00499847 0.0011897299 -0.0017334583 0.00125958 0.0021345713 -0.0039310553 -0.003410889 -2.2270982e-05 -0.0019316986 -0.0014632762 0.0036351616 -0.0011157359 0.0015126446 0.00020887276 0.0030010543 -0.00028209278 -0.0041920035 0.0004831914 -0.0022839215 0.0046359184 0.00450237 0.0026537997 0.0048038675 -0.00071410026 -0.0012690317 -0.0037986012 0.0026008994 -0.004586613 -0.004162021 -0.00042783853 0.0004768262 -0.00042438752 -0.0014557479 -0.0020403415 -0.004213378 -0.004837003 0.0047943853 0.004866125 -0.0020089517 0.0020258615 7.811254e-05 -0.0036179079 -0.0025336342 0.0045287604 0.0047563217 0.0010850802 0.0047441437 -0.0031810189 -0.0045598764 0.0035896318 0.00039494058 -0.000647378 -0.0047009485 -0.0014823171 -0.0048800693 -0.0005451708 -0.0047669876 0.0046731797 0.0043570637 0.0038651247 0.0027136507 -0.0024171593 0.00037414563 -0.00033815554 0.0011480242 -0.0032099383 0.0012606274 -0.0033946675 -0.0024082295 0.0026630291 -0.0011381446 -0.0041190754 0.0036962456 -0.0004728174 0.0039160205 -0.0027360632 0.00018254442 -0.0019307254 -0.0009531434 0.0008645835 -0.0046300236 0.0014427203 0.0048362045 -0.0019358445 -0.002009674 0.0029565587 0.00063487276 -0.0032272858 -0.0019316303 0.0023686988 0.001890011 0.0041225664 0.0039646234 -0.0018657781 -0.0014070056 -0.003802302 -0.0010639289 0.0037775587
range-query -0.0010302905 0.004882416 -0.0031712942 -0.002555309 0.001760864 0.0020401648 -0.000689943 -0.00044600168 0.0035850974 -0.0016280089 0.002910603 0.00446113 0.00227674 0.00045562699 -0.0040036044 0.0035365766 0.0016570215 0.0013823523 -0.0029696773 -0.0025688605 -0.0030260342 -0.0012771086 0.004335602 0.001883841 0.00463072 -0.003988952 -0.003116893 0.0045559052 -0.001926699 -0.0011671319 -0.00141594 0.0017978048 -0.0028492413 -0.0027068176 -0.0039144475 0.0011988415 0.0035278206 -0.0046004616 -0.00033106536 -0.0006091153 -0.0018349639 0.0006845175 -0.0030261825 -0.0049689896 0.0012498522 0.0032336102 0.004252647 0.0018106892 0.0025430408 0.0029657956 -0.0021402086 0.0024198925 0.002399553 -0.004973768 0.0012056108 -0.00063377514 -0.0022639958 0.0015774296 -3.9262042e-05 -0.0018367065 0.00070017006 0.0045019337 0.0016586696 -0.0032867454 -0.0021022412 -0.004137118 0.002380076 0.0031682402 -0.00063826307 0.0041059647 -0.0043349774 0.00088169664 -0.004570197 0.0044882414 -0.0020980437 -0.0032399045 -0.0011018262 -0.0023502707 0.003130588 -0.004858101 -0.0017837225 0.0013274681 0.0015177097 0.0037659318 0.0044530868 -0.0034422902 0.00042551805 -0.0003979621 -0.0010624562 -0.002552827 0.00014563953 -0.0040389113 -0.0044393237 -0.0043703355 -0.0033618843 -0.0049304264 0.003184002 0.0018491686 -0.0025190453 0.0019515608
technique 0.0023584915 -0.0022260912 -0.0020500375 0.0017365137 0.0021846252 0.0036521647 -0.0023408923 0.0008840326 0.00022385278 -0.0032964575 0.0016852049 0.0015160202 0.004220708 0.0036310705 -0.00021639862 0.0010785713 -0.0033074722 0.0010466533 0.0027475848 0.00049329596 0.0002693448 0.0012511561 -0.0037978303 -0.0023007072 -0.0013619831 0.0022272351 0.00013315893 -0.003524475 0.0025551827 0.0019117147 0.0040233196 0.0012730029 0.0043528797 0.003462282 0.001531103 -0.00038435753 -0.0035601764 -0.0010907511 -0.004021465 0.0022030268 -0.0018187027 -0.0044850353 0.00081262656 -0.001184667 -0.00237658 -0.003328774 0.0027274084 -0.0008607744 -0.0011094859 0.0035438084 0.004796001 0.0040647564 -0.002549521 0.0013222197 0.0011505169 -0.00052600965 -0.0032361473 0.00056934176 -0.003101333 0.0019703314 -0.004906151 -0.0028073057 -0.0008711994 0.0047244853 -0.00024464136 0.0047761654 0.004357091 0.0042196163 -0.0026256738 0.002013726 -0.004332255 0.0017943026 -0.0031547453 -0.0005383647 -0.0014060485 0.002096767 -0.00018924056 0.0019731997 0.004021733 0.0028378516 0.0038395748 0.0031749012 -0.004803643 0.0040050126 0.004314313 -5.6161738e-05 -7.077941e-05 -0.0024195213 -0.00056765456 0.0006399372 0.0018153236 -0.0025535754 0.004980835 -0.0007446735 0.00016151916 0.003771437 0.001357145 0.004934779 0.0018998823 0.0015295169
set -0.003227191 0.0014961415 0.0013374696 -0.0013011994 -0.0004385833 -0.0018273909 -0.0009958739 -0.0036545398 -0.0049097654 -0.003038642 0.0027287072 0.003604132 -0.004021735 0.0008321885 -0.002638351 0.0013987945 -0.0046366556 -0.003732452 0.0032479786 -0.0008307551 -0.0041734395 0.0029112112 0.0016679068 0.0024181183 0.0043173586 0.0020515134 0.003231635 0.0020204827 -0.0027513078 -0.001995621 -0.0040713917 -0.00327708 0.0024801302 0.0024516222 -0.0023164435 -0.0022010363 0.00035063512 -0.0016177379 -0.00345388 -0.0026272463 -0.00057616626 -0.004001429 0.0030748916 -0.00093294354 0.0032423902 0.0025578614 -0.0036184178 0.0039936574 0.00060507556 0.0028374358 -0.0017472176 -0.0023153257 -0.0010326285 -0.0048693405 -0.003060295 -0.0015207629 0.001222198 0.0022456779 0.0040610344 -0.00013245457 -0.00036286225 0.0040576635 0.0045448965 0.0035736975 -0.002384167 -0.0031844045 0.002415702 -0.0019160211 -0.00193788 -0.0007417674 0.00011335411 0.0036000444 -0.0006793029 0.0035538946 0.0016324812 -0.0027445126 0.0011909604 0.0007869609 -0.004455671 9.262141e-05 0.0011545345 -0.004139083 -0.0020248655 -0.0021424221 0.0024463322 -0.0027546096 0.0017400363 -0.004985436 0.0042484766 -0.00085921085 0.0007910239 0.0046015144 -1.8553324e-05 -0.0026334813 -0.0022809035 -0.00014527218 0.0014348248 -0.0020384095 0.0041050604 -0.004516082
questionnaires -2.8407876e-05 -0.0035332467 -0.0029429295 0.0022020938 0.003250619 -0.0037994224 0.002275447 -0.0028068107 -0.00055479823 1.8731565e-06 -0.0015498505 0.0040157433 0.00068298104 0.004974466 -0.0033844428 0.00013491331 -0.0033928475 -0.004753138 0.0044931355 -0.0024773618 0.004976745 0.0040551717 0.0013214861 0.0034724148 0.0042515825 0.0048798504 -0.004398773 -0.001591639 -0.0033559455 -0.0049065095 0.0017351042 0.0047038607 -0.0039652516 -0.003578114 -0.00065382005 -0.004356448 -0.0013447016 -0.00082294643 -0.0005494997 -0.0028016332 -0.0034003519 0.0011210892 -0.0019158585 -0.00037469846 0.004312654 4.8260918e-05 0.0003105379 0.0030046012 0.0019935672 -0.0003815611 -0.0040096045 -0.0014111507 0.0047257734 -0.0017227588 0.0022002067 0.0013187085 -0.0014435478 -0.00014519239 0.00041169615 0.0014270887 0.00074154645 -0.0033624163 -0.0030034527 0.0037093803 0.0026284445 -0.0023635908 0.0021812692 0.00016479362 0.0008476402 -0.0015200524 -0.0046866676 -0.004856894 -0.00053893053 0.0044059255 0.00091113115 -0.003600479 0.003117814 0.0012664391 -0.00071187696 -0.0030907695 0.004948653 -0.00290041 0.00034620828 -0.00053669076 0.0014753576 -0.0047310977 -0.0005545805 -0.003156157 -0.00021903243 0.0015702922 -0.00394131 0.0007672506 0.0034824158 0.00027889595 -0.0010886381 -0.001695768 0.0047290497 0.0033301294 0.0024271843 0.0018097562
center -0.0027850466 -5.6345725e-05 0.0008615283 -0.0017415057 -0.0028558143 -0.004959451 0.00206939 0.004357089 -0.0032652968 -0.004476454 -0.0041417587 -0.00010778905 0.0019955651 -0.0014575133 -0.004311976 -0.0017097048 0.0044862516 -0.0043538604 -0.0013133686 0.0030642038 0.0041114637 -0.00049534865 0.0048715537 -0.0037787592 -0.0035597733 4.4774024e-05 -0.0043571726 0.0045005223 -0.003063081 -0.0025022302 0.0008579703 -0.0040243273 -0.003174253 0.004227674 0.0015359698 0.0034701535 -0.001758371 -0.0006932905 -0.0016154064 0.00043233938 0.0043227277 -0.0043575615 0.0026278808 0.0027914513 -0.004870269 -0.0016800619 -0.0034468768 0.0024783262 -0.0024358889 -0.0012907787 0.0044612815 -0.0017264105 0.0040727565 0.0045845243 0.0028065545 -0.004727529 0.0026748604 0.0043274974 0.00066594686 0.00070940016 0.0021880302 0.00079975306 0.003054214 -0.002060161 0.0049293777 0.0012253417 0.0027486272 0.0042449115 0.0035115054 0.0033153205 -0.0042540096 0.003791126 0.0046366015 -0.003925971 0.0031443483 0.0037311579 0.004955108 -0.0012691277 -0.0022607057 0.004562468 0.0016334179 -0.0015993378 -0.0019981202 -0.0010813747 0.0017132261 0.0047824336 -0.0016936114 -0.0015127657 0.0019094611 0.0015547115 -0.0027993831 0.0027382784 0.0035298383 -0.0031319156 -0.004620368 -0.0049230675 -0.0015921765 -0.002581031 0.0042149783 -0.00025648728
face-to-face 0.0041613975 -0.0033891723 0.0023723363 6.9422535e-06 0.0010317268 0.0034397934 -0.0017350243 0.002428969 0.00018682727 0.004522087 0.003750131 -0.0003590069 0.0020995454 -0.00043849688 -0.00046659174 0.00037448137 -0.0018623616 -0.0046777776 -0.0036966268 0.0014022414 -0.001775691 0.0040160846 0.0049065673 0.0007774402 0.0019917074 0.0024586201 0.002822702 -0.0019798113 8.044622e-05 -0.0019523482 0.0017712383 0.0005116533 -0.00081172906 0.0045255013 -0.0011175778 0.002154623 -0.0034175308 0.0004367572 -0.003141533 -6.190024e-05 -0.0010337466 0.0029788502 0.0026631816 0.0047039245 0.00034556034 0.004523424 0.0009760359 0.0036010465 7.38507e-05 0.0013982842 -0.0024381366 -0.0032434862 -0.0050027138 0.003734124 -0.0037462856 -0.0008988254 0.0032798168 -0.0039092354 -0.0030578678 0.0025625932 -0.004646598 0.0044756425 -0.0040809186 0.004535786 -0.0018562175 -0.003954696 -0.0030000033 -0.0044116294 0.0013353375 -0.0034007933 0.00074486615 0.001656026 0.00047618584 0.00022046598 -0.0029718971 -0.0010754269 0.0022746674 0.0032333802 0.0029487426 0.0022148397 0.002172375 0.0002328026 -0.0038478829 0.0023894997 -0.0030717596 0.0046239924 0.0045173485 -0.0035497579 -0.00039643786 -0.004987257 0.0003064296 0.00063407613 -0.0032647022 0.0037479976 0.003681068 -0.003073617 0.0011802329 0.00091932574 -0.00022454164 -0.002731808
color 0.0028464356 0.0041726152 0.0026604275 0.0047704265 0.0048160027 0.0036226434 -0.0037484851 0.0027845444 0.00030826617 0.0029141507 0.002581479 0.0011268697 -0.0018233537 -0.004227909 -0.0014591386 0.0024012723 0.0014696757 0.0017499154 0.0031497662 0.002038188 -0.0023543346 -0.0038400453 0.00015056574 0.00035361008 0.0020694027 0.0008908845 -0.0014571493 -0.004439864 0.004617679 0.00017966435 -0.0016797325 -0.0012105393 0.0016796981 -0.002092486 0.004763928 -0.00352972 0.001990447 0.004868306 -0.0034595923 0.00025685265 -0.0047209198 -0.0024243135 0.0045720944 0.004670143 0.002808028 0.0046357843 0.0021878278 0.00431525 0.004196483 -0.000965381 0.0046996544 0.0027411513 -0.0017844867 -0.0014476209 -0.0036815812 0.004156013 -0.002909805 0.0044136494 0.0029447402 -0.0012233639 0.0013416858 0.0019717282 0.00022690788 -0.003017136 -0.0033559084 0.00060310744 -0.0033784464 -0.003572956 0.0029239187 0.002221442 -0.0007405935 -0.0027469713 0.00058103324 0.0022605031 -0.00275048 0.0041755955 0.004205482 0.0016470143 -0.0026002254 -0.00045850503 -0.00029055326 -0.0034801143 -0.0038489634 -0.0009826861 0.00033174487 0.0018685648 -0.0048089167 0.0042222384 -0.00014524176 0.0032784916 -0.004908287 0.0019395766 -0.0025498183 -0.003661587 -0.0005919509 -0.0026107463 -0.0041209133 0.00032171505 -0.00359691 -0.0015037161
qbic 0.0023165098 0.0016636264 0.0010400976 -0.0005638285 -0.00426421 0.0012988029 -0.0020447841 -0.0011464515 -0.00029924713 0.0017996705 3.5772675e-05 -0.002256097 -0.0012284233 -0.0040923045 0.0024338216 0.000876988 0.0038078313 -0.0015252212 -0.0029574186 0.0038124819 0.004507615 -0.0010008428 -0.0032463055 0.0019247851 -0.004027123 -0.0030082148 -0.0013039835 0.0047242963 -0.0027700334 -0.0048114522 -0.003070434 0.0013446832 -0.0003214392 0.0040649124 -0.002999207 -7.901319e-05 0.0024902325 -0.001200874 -0.00012028735 -0.0038914462 0.0038889104 -0.004482004 -0.0015455262 0.0005824173 -0.0044477414 -0.0045035384 -0.0015788622 0.0041756723 0.0029192287 -0.0014158596 -0.0026384834 0.0017859142 0.001857654 -0.0022138013 -0.00041717588 -0.0013278965 -0.0035273328 -0.0008990844 0.003988424 -0.0048500914 0.0002959088 -0.0032103278 -0.0034562238 -0.002557477 -0.004920437 -0.0033579478 0.00097412214 0.00058695104 0.0016896738 -0.0015776043 -0.0039484245 0.0015346658 0.0024027014 -0.003910982 -0.0039795456 0.0037548593 0.0010206706 -0.00086243346 0.00447115 0.0034085838 -0.0042266767 -0.0042753923 -0.0012560625 0.003862143 0.0010615551 0.0003838245 0.0002983632 0.0044851387 -0.004702863 -0.002017597 -0.002494714 0.0037495361 -0.004774303 0.0024723273 0.0018374238 0.0027240142 0.0047977404 -0.0005657293 -0.00030252905 0.0022534737
concepts 6.140839e-05 0.0031267276 0.0038692385 -0.0036553682 0.0045710006 0.002120118 -7.170538e-05 0.0033651567 -0.003713847 6.2430925e-05 0.00075038685 -0.0027209138 -0.002276732 -0.0045810724 -0.002360096 -0.002228437 -0.002233611 -0.0048039337 -0.004271198 -0.00028440164 -0.0039261538 -0.00171982 -0.0015956445 -0.003144089 3.7335965e-05 0.003982245 0.0022266775 5.392617e-05 0.003801701 0.0023878952 -0.004810291 0.0009594203 -0.0029396433 0.0014475854 0.0044161812 -0.0013293471 -0.004356233 -0.0027523448 0.004063682 0.004704904 0.0032490073 0.00067842455 -0.0026571872 -0.00020210145 -0.0009729146 0.0021222383 -0.0014043369 -0.0002722933 -0.0032454408 0.004932579 0.003228055 0.00034240834 -0.001925422 0.0004722929 -0.004320636 0.004596213 -0.0023863253 -0.0040331804 -0.0024348611 -0.00065580825 -0.0023370648 -0.0019043367 -0.00473963 -0.0033831317 0.0016105715 0.0011919548 0.0047640502 0.004004149 0.0028544844 0.00017078982 -0.0049728034 -0.0021082906 0.0015456922 0.0027496535 -0.0011143852 -0.0036583312 0.004444991 -0.002088515 0.002779058 -0.002308632 -0.004005023 -0.0005280132 0.0036654263 -0.002737738 0.0025099115 0.0026163252 0.00067107205 -0.0013122767 -0.0032379003 0.004512972 0.0022200663 -0.0014123942 0.00090826495 8.912257e-05 -0.00392073 -0.001262294 0.0018281592 0.0027539036 -0.0033841387 -0.0019491876
supervised -0.001296325 -0.0015123812 0.0042786812 0.0012240943 -0.0048802802 0.0036178795 -0.0007133981 0.0041206707 0.0013785894 -0.0017178347 -0.002951948 0.0016338088 0.00445177 0.0016592649 0.0007540024 0.0026683863 -0.001712904 0.0030209457 0.0006685017 0.003918129 -0.0030992038 0.001418908 -0.0017378236 0.0014849245 0.003755423 -0.0044863545 -0.004261093 0.0047609145 0.0029065756 0.004317145 -0.0040192567 -0.0009951544 0.0002199045 0.0033134348 0.0032197658 0.003933374 0.004078831 -0.0046630623 0.0045140837 -0.0011734668 0.001145145 -0.0037077211 0.0010165424 -8.43704e-05 0.0042930664 -0.002471128 0.0046287687 -0.0033772343 -0.0034531732 -0.001467887 0.00092363806 0.0021821405 -0.004449421 -0.0007095856 0.0038020485 -0.0006796902 0.0029833147 -0.0013806007 -0.0004404826 0.0013682806 0.0010867201 -0.0031604795 0.001040799 -0.0033140401 0.0034973086 0.0023414516 -0.0020254068 -0.00329515 0.004247744 -0.0038517434 -0.0009240995 -0.0023073775 0.0005462022 -0.0008132437 -0.003672349 0.0017045514 -0.001752082 -0.0026764376 0.00095535413 0.0031973063 0.00036961318 0.0008531462 -0.0032577415 0.0009857329 -0.00077367504 -0.000768171 -0.0028391222 -0.0030331921 -0.0029565315 0.001917271 0.0020020148 -0.0016067098 0.002336913 0.0025005413 0.002520828 0.0036911885 -0.00085343304 -0.00031355408 0.0034707244 0.0027686588
